Weights and Biases:

Weights W1:
# Shape: (10, 784)
-0.009208 -0.014721 0.019976 0.018017 -0.003161 -0.008847 -0.009050 -0.007393 0.014658 -0.007326 -0.015861 -0.010770 0.014899 -0.004176 -0.009941 0.017746 -0.012170 -0.007544 -0.013016 -0.008000 -0.012354 -0.009424 -0.007311 -0.016422 -0.017397 -0.010687 0.003844 0.011237 0.001247 -0.009163 -0.009995 -0.000655 0.001452 -0.014640 -0.008824 -0.019295 0.008898 -0.024433 -0.000068 -0.002219 -0.021374 -0.006652 -0.015543 -0.010995 -0.011062 -0.000231 -0.016034 0.002968 -0.000032 0.018080 0.007332 -0.018446 0.012778 -0.009205 0.003171 0.001693 0.006157 0.001319 0.012229 -0.011067 0.003838 -0.005281 0.006926 -0.026953 -0.001417 0.014783 -0.015629 -0.001188 0.007910 0.031548 -0.004903 -0.004558 -0.005928 -0.008379 -0.011791 -0.014971 0.003553 -0.015740 -0.006582 0.001205 -0.013193 0.007696 0.018894 0.008437 -0.005241 0.007320 -0.017890 0.006719 -0.011267 -0.003532 -0.013909 -0.021675 -0.024132 -0.019309 0.011054 0.024876 0.014061 -0.015298 0.034166 0.011652 0.011453 0.045324 0.033527 0.032236 0.021871 0.008044 -0.003636 -0.008327 -0.001442 -0.018687 -0.013993 0.016309 0.010112 0.009023 0.010405 0.008688 -0.000802 -0.005529 -0.017028 0.006839 0.007745 -0.016474 0.006190 -0.015856 -0.010579 -0.010887 -0.002948 -0.029141 -0.000482 0.006523 -0.006760 0.015242 0.016205 -0.004645 0.004080 -0.001290 0.004478 -0.025701 0.001989 0.003485 0.008093 0.018043 0.003889 0.017457 -0.000046 0.023858 0.022725 -0.009953 -0.015639 -0.004894 -0.003283 -0.004754 -0.006638 -0.024459 -0.005438 -0.003088 -0.022063 -0.000723 -0.016029 -0.016960 0.008450 -0.002277 0.017164 0.005189 0.014046 0.001669 0.009291 0.006177 0.009311 0.003028 -0.008888 -0.008500 -0.029479 -0.013597 -0.010140 0.003567 0.018663 0.002229 -0.024968 0.005763 0.005386 0.005031 -0.004763 0.004667 -0.000711 0.007376 -0.000871 0.009053 -0.011234 0.000980 -0.003602 0.000730 0.004633 -0.006211 -0.005053 -0.022593 -0.013679 -0.008286 0.007730 -0.012243 -0.010959 0.006320 -0.013921 -0.017591 -0.012623 0.009269 -0.001724 -0.003676 0.006691 -0.004797 0.008786 0.012055 0.011279 0.004690 -0.004106 -0.010444 -0.001731 -0.000713 0.005792 -0.003615 -0.018979 -0.007547 -0.020042 -0.014929 -0.016353 -0.016865 -0.001938 -0.013358 -0.019751 -0.001159 0.002083 0.002982 -0.010924 -0.005110 0.008344 -0.008694 -0.000620 -0.000016 -0.007495 0.001020 -0.008228 0.003184 -0.002465 0.000177 0.005691 0.020075 0.004781 -0.014467 0.001597 0.002195 0.007578 -0.019795 -0.020188 -0.006155 0.004397 0.011023 -0.020081 -0.005973 -0.003013 0.012121 -0.005641 0.000729 0.001702 -0.001856 -0.006272 0.001667 -0.019626 0.003568 -0.006922 -0.009796 -0.000927 -0.006680 -0.011030 -0.022488 -0.018357 0.026022 -0.037462 -0.023616 -0.000540 -0.011927 -0.007632 0.009771 0.015702 -0.008592 -0.012158 0.013672 -0.003265 0.001240 -0.001323 0.007668 0.019357 0.011870 0.008140 0.010778 -0.012359 -0.011193 -0.004735 0.007609 -0.004435 0.001801 -0.002202 0.007094 0.003850 -0.015745 -0.016830 -0.029438 -0.018319 0.007002 -0.009650 0.001190 -0.009165 -0.016289 0.014168 0.003901 0.006334 0.023279 0.016212 0.002567 0.006330 0.009378 0.017090 0.019642 0.012836 0.010314 0.025420 0.007305 0.007434 0.001603 0.010249 0.002188 0.000561 -0.008889 -0.030867 -0.014296 0.002664 0.008961 0.006699 -0.001950 0.011449 -0.011377 0.011659 0.011829 0.021582 -0.008597 -0.003078 0.015682 0.008585 0.015370 -0.004851 -0.019478 0.009241 0.011960 0.005058 0.009542 0.011039 0.012562 -0.002133 0.002718 0.019473 0.000697 -0.039403 -0.019911 -0.008947 -0.019457 -0.008330 0.005521 -0.010965 -0.014198 0.028151 0.016972 0.000471 0.025001 0.015227 0.003129 0.008117 0.000325 -0.013887 0.010756 -0.003669 0.011940 0.007207 0.019523 0.001790 0.003683 0.008221 0.002745 0.001745 -0.006900 -0.006735 -0.003266 0.009901 -0.000879 -0.003932 0.001383 -0.000330 0.036440 -0.002837 -0.010901 -0.005775 -0.001473 -0.008420 0.008148 -0.003256 0.008134 -0.009190 0.002383 -0.009013 0.016980 0.011056 0.010291 0.004464 0.002521 0.026243 0.006238 0.018492 -0.020015 -0.023450 0.021294 0.015050 0.009023 -0.014600 0.016419 -0.016412 0.030086 -0.001218 -0.002924 0.008708 0.005630 0.009516 -0.002436 -0.003223 0.010481 -0.002025 -0.004847 -0.002750 0.005964 0.018928 0.013233 0.010557 0.024156 0.000079 -0.013132 0.014902 -0.012417 0.031586 -0.006815 -0.003055 -0.016016 -0.010543 0.014740 -0.005873 0.007211 0.010341 -0.011260 -0.000245 -0.014685 0.004406 -0.009312 0.006225 0.006293 0.001434 -0.013815 0.014279 0.006567 0.010654 -0.000068 0.014713 -0.007638 0.003964 0.015069 0.004381 -0.009040 -0.019591 -0.020811 -0.025683 -0.004584 0.010725 -0.019487 -0.009607 0.010622 -0.007476 -0.026621 0.016173 -0.004067 0.012552 -0.000872 0.004836 -0.001598 0.000380 0.000583 -0.002718 0.022359 0.010250 0.000092 0.001723 -0.012147 -0.005383 -0.001427 0.003203 0.024861 -0.031069 -0.001199 -0.017895 -0.007904 0.002813 -0.013405 -0.007520 -0.005302 -0.020438 -0.004556 -0.033068 0.018747 0.001096 0.008464 0.007029 0.015785 -0.011792 0.007185 0.005020 -0.009270 0.003402 0.005772 -0.005453 -0.009170 0.002053 -0.024460 -0.025345 -0.014650 -0.007266 0.024434 0.004400 0.007989 -0.010581 -0.026494 -0.029746 0.016927 -0.038580 -0.022033 0.003220 0.003877 -0.016629 -0.000357 -0.016371 0.015982 0.008911 -0.010039 0.000937 -0.002487 -0.017362 -0.027282 -0.007696 -0.000299 0.014447 -0.017218 -0.011660 -0.030744 -0.006482 0.005587 -0.010210 -0.017222 -0.017798 0.017692 0.009386 0.019453 -0.024972 -0.015347 -0.009411 -0.030596 -0.026628 -0.060750 -0.019490 -0.021797 -0.018871 0.001507 -0.000826 -0.011425 0.000620 0.019875 -0.018681 0.010672 -0.017829 -0.003136 -0.003243 -0.013307 0.016816 0.005876 -0.021318 -0.003188 -0.014968 -0.002520 0.000701 -0.012387 -0.012575 -0.011124 -0.048687 -0.028951 -0.031943 0.010608 -0.015231 -0.000540 -0.001677 -0.010537 -0.002111 0.006192 -0.004585 -0.012418 0.002561 -0.012863 -0.019283 -0.011186 -0.016930 0.002286 0.027622 -0.007257 0.018688 -0.009679 -0.004109 0.015013 -0.000449 0.008644 -0.012121 -0.030416 -0.012374 -0.022124 0.010963 -0.000267 -0.015179 -0.027900 -0.011776 -0.017585 -0.009929 -0.013757 -0.003282 -0.001785 -0.020101 -0.023309 -0.002731 -0.012636 -0.002481 -0.009085 0.000632 0.008735 -0.008572 -0.013113 -0.000944 -0.000487 -0.019341 -0.016288 -0.036756 -0.015137 -0.010286 -0.005449 0.007420 -0.024596 0.012962 0.004415 -0.011618 -0.014921 -0.008874 -0.021759 -0.011388 -0.023096 -0.000281 0.005604 0.003936 0.007800 0.012903 -0.025854 0.020525 -0.011165 0.007735 -0.007168 0.004427 -0.019944 -0.019566 -0.011735 -0.036427 0.003392 0.008240 -0.000791 -0.007124 0.000476 -0.000894 -0.014385 -0.007568 -0.010524 -0.011285 -0.004606 -0.013224 0.008890 0.003829 -0.012833 -0.000215 0.001042 0.019072 0.033975 0.015424 0.007002 0.007614 0.019134 -0.015950 -0.000473 -0.000118 -0.013972 -0.007500 0.023059 -0.000920 -0.001346 0.004930 -0.016460 -0.003744 0.003403 -0.002426 -0.000936 0.002686 -0.007905 0.012349 -0.019824 0.004837 -0.017118 0.001380 0.013165 -0.015050 0.000292 -0.009481 0.006920 -0.021122 -0.017489 -0.004771 0.008856 0.011795 0.019161 0.024872 -0.001645 0.007073 0.016058 0.006183 0.022578 0.006052 0.014374 0.024923 0.012603 0.008908 0.030483 -0.001030 0.025393 0.038797 0.023158 0.024985 -0.007004 0.003929 -0.002702 0.010190 -0.007969 -0.003468 -0.011956 -0.004806 -0.008168 -0.000620 0.019720 -0.000839 -0.001032 -0.006686 0.007027 0.004976 -0.007879 0.004968 0.003808 0.010800 -0.007331 0.011086 0.012828 0.019011 0.001716 0.014650 0.014662 0.008275 0.013320 0.015781 0.019695 0.015923 -0.003668 -0.018212 -0.015102
-0.007171 0.016602 0.018518 0.019490 -0.016552 0.011858 0.018105 0.005287 -0.013860 -0.013590 0.011736 0.012535 0.015517 0.003043 0.008168 0.013718 -0.004790 0.016686 0.001294 0.017560 0.004090 0.015707 -0.000230 0.000452 0.003867 0.004751 0.019630 -0.006233 0.018067 0.017662 -0.009929 -0.016566 0.018673 -0.015534 0.012583 -0.007987 -0.011664 0.003169 -0.007072 0.016078 0.002069 -0.004969 -0.015920 0.009141 -0.010666 -0.010131 0.018444 -0.006423 0.017832 0.016563 -0.000793 0.002968 -0.013211 0.009706 0.015960 0.019763 0.002733 -0.000025 0.010621 0.010134 -0.010938 0.016040 -0.000048 -0.000253 0.003632 -0.010180 -0.002165 -0.014047 -0.008543 0.001156 0.003391 -0.009898 -0.018811 0.018015 -0.010424 0.002457 0.010796 0.014841 -0.001778 -0.008545 0.005005 0.018506 0.004114 -0.000453 0.008400 -0.015391 0.003187 0.011981 0.006285 0.009708 0.015284 -0.020529 0.012078 0.005123 0.006238 0.003372 0.000995 -0.017794 -0.019682 0.003297 0.009394 -0.003096 0.009205 0.022941 -0.020916 -0.006951 -0.016630 0.014803 0.007610 0.017079 -0.018215 -0.013349 0.011231 0.013111 -0.014637 -0.013680 0.014271 -0.014608 -0.016176 -0.004119 0.011260 -0.032015 -0.030358 -0.032363 -0.032405 -0.014712 -0.002840 -0.034437 -0.027209 -0.012511 -0.011318 0.022048 0.004180 0.024596 0.012670 0.004375 0.017600 0.004642 0.015775 -0.014019 -0.019257 0.002530 -0.010854 0.008275 0.000186 -0.016414 -0.001338 0.011640 -0.006455 0.013005 -0.018896 -0.007651 -0.002218 -0.028587 -0.009943 0.006330 -0.013924 -0.054910 -0.018487 -0.034994 -0.061185 -0.018665 -0.012860 -0.005258 0.006275 -0.014682 0.014250 -0.001473 -0.016616 -0.009969 0.003577 0.014491 -0.011465 0.004975 0.003369 -0.007629 0.013475 0.003509 0.003345 0.021605 0.002565 0.001066 -0.007820 0.004192 -0.002960 0.014213 -0.005789 0.018147 -0.012386 0.014524 -0.000348 -0.022810 -0.004979 -0.010122 0.012168 0.001452 0.006685 0.014986 0.012250 0.022188 0.001010 0.021938 0.000543 0.015139 -0.008346 0.006356 0.018256 -0.002642 0.001587 0.001324 0.000255 -0.013727 0.017882 -0.001683 0.009433 0.002892 0.015618 -0.001009 0.007755 0.018440 0.017407 -0.016061 -0.011138 0.009965 0.017456 0.022256 0.007135 -0.000629 0.007886 -0.018135 -0.007351 0.006587 0.013002 -0.003670 -0.000518 0.029609 -0.002286 0.007064 0.008602 0.005188 0.009123 0.004130 0.014498 0.005608 -0.013084 0.012566 0.000375 0.011220 -0.018012 -0.013219 -0.009918 0.005218 0.022857 -0.003199 0.006141 0.006297 0.015986 0.002683 0.012006 -0.006874 0.003159 0.005162 -0.005210 -0.011878 0.026346 -0.001078 0.011272 0.010076 0.012538 0.014708 0.005362 -0.000070 0.007317 0.002351 0.003660 -0.000473 0.006676 0.006377 -0.009446 0.015781 0.009511 -0.000534 0.003535 -0.011948 0.001821 0.016606 -0.002086 0.004490 -0.009308 0.001232 0.000728 0.005978 -0.017878 0.020133 -0.002753 0.000678 0.008015 0.001847 0.001916 0.017129 -0.001596 0.001103 0.016682 0.025480 -0.000444 -0.006705 0.009696 -0.009864 0.003955 0.032512 0.001335 0.020053 0.003988 -0.008835 0.002637 0.007968 -0.013969 0.011614 0.001610 0.002796 -0.008102 0.010592 -0.003947 0.019155 0.011676 0.012168 0.011453 0.005970 0.005991 0.009528 -0.011792 -0.012646 -0.048207 -0.001755 -0.002361 -0.002099 -0.019712 0.007104 0.010833 0.010046 -0.012221 0.005394 -0.020823 0.021529 0.003198 -0.001312 -0.011175 -0.000213 0.005913 -0.052659 -0.009059 0.015066 0.014057 -0.002242 -0.001428 -0.010114 -0.020047 -0.022238 0.004397 -0.019082 -0.002278 0.042852 0.009401 -0.014777 -0.003834 0.005513 0.025513 -0.016413 0.032903 0.005125 0.011599 -0.011449 0.001694 -0.003740 0.006527 0.006304 -0.042098 -0.075721 0.005113 -0.006127 -0.003482 0.007178 -0.006930 -0.006727 0.005414 -0.015737 -0.011148 -0.024677 0.003145 0.005057 0.002333 0.008188 0.016796 -0.002696 0.018812 -0.008731 0.006662 -0.001848 -0.006748 -0.015753 0.011962 -0.015761 -0.000454 -0.044059 -0.039992 0.001813 -0.019394 -0.001666 0.009416 -0.009142 0.001140 0.005328 -0.000393 0.027711 -0.000734 0.023001 -0.018586 0.018200 -0.003148 -0.001118 -0.005629 -0.014002 0.018343 0.019843 -0.002589 0.003572 -0.011653 0.009390 -0.025356 -0.008045 -0.029606 -0.000458 -0.035859 0.010470 -0.009532 -0.000579 -0.007388 0.036957 0.022079 0.019161 0.016300 0.009629 0.015840 0.007189 0.008067 -0.029192 -0.002442 -0.014150 -0.019953 -0.007916 -0.016754 -0.000086 0.007143 -0.024219 -0.005198 -0.008591 -0.024038 -0.002472 -0.008478 -0.045753 0.005826 0.012075 -0.012429 0.006734 0.004600 -0.006640 0.009551 0.000081 -0.006127 0.026453 -0.035548 -0.007298 -0.004481 -0.018732 -0.017836 0.006852 0.019022 -0.018945 0.018825 0.012607 0.028042 0.003647 0.000829 -0.003269 -0.010752 0.025864 -0.059233 0.022666 -0.013061 -0.000955 -0.000643 0.000301 -0.000867 0.005565 0.003085 0.020912 0.031000 -0.015232 0.011106 0.044571 0.005225 0.004413 -0.000224 -0.008004 0.005875 -0.013252 0.005176 -0.017667 0.010933 -0.030489 -0.038823 0.011491 -0.040660 -0.011908 -0.013219 0.002458 0.009384 0.015160 -0.005728 -0.005588 -0.006473 -0.006181 -0.003345 -0.008878 -0.019299 -0.012315 -0.012759 -0.020654 -0.037833 -0.005994 -0.013329 0.012214 -0.018228 0.007935 -0.000875 -0.019794 -0.030508 -0.053695 -0.050348 -0.030604 0.012270 -0.001582 -0.010723 -0.002096 0.000580 0.008706 0.010110 -0.013744 -0.007690 -0.010397 -0.001353 0.006030 0.003945 -0.001050 0.002476 -0.020198 -0.001420 0.006235 -0.003482 -0.004121 -0.015743 -0.003912 0.001316 -0.004497 -0.008328 -0.060154 -0.031757 0.000166 -0.011619 -0.012334 0.016768 -0.003721 0.015589 0.004069 0.015582 0.000444 -0.013202 -0.033392 -0.020120 -0.042774 -0.038917 -0.009304 0.003048 -0.002122 -0.008126 -0.012278 -0.001017 0.013575 -0.007438 -0.010366 -0.024888 -0.004436 -0.015867 -0.009165 -0.003322 -0.008319 -0.003056 -0.010977 0.000133 0.013772 -0.004453 -0.005477 -0.013310 -0.005846 0.011728 0.018080 -0.028155 0.009578 -0.017114 -0.038213 -0.014360 -0.003886 -0.019706 0.013615 0.012369 -0.002215 0.002106 -0.000068 -0.012829 -0.007240 -0.048347 -0.004392 -0.004632 0.010983 0.009962 0.015363 -0.011917 -0.023006 -0.007158 -0.003189 0.019962 0.005821 -0.012387 -0.008254 -0.010292 0.004592 0.021693 -0.026590 -0.022953 -0.014270 -0.007616 0.001639 0.004472 0.009702 -0.007531 0.018281 -0.010591 -0.025331 -0.000822 -0.006775 -0.000139 0.005517 -0.033229 -0.015645 0.004503 -0.005030 -0.000854 -0.019442 -0.012331 0.000565 -0.002799 0.007468 0.015281 -0.002508 -0.023022 -0.023708 0.002278 -0.003913 -0.009521 0.003428 -0.002343 -0.014801 -0.011694 -0.009816 -0.013924 -0.006916 0.030189 0.055411 0.012831 0.009011 -0.014864 -0.001230 0.000065 -0.006466 -0.000684 0.013967 -0.006544 0.003977 -0.005918 -0.011294 -0.028437 -0.033896 0.013625 -0.012762 -0.025246 0.004345 0.002452 0.003443 0.010814 0.014333 0.013515 -0.012695 0.009023 0.008819 0.029899 -0.031781 -0.021622 0.009041 0.009091 -0.002740 -0.000675 0.003223 0.002581 -0.004635 0.003336 0.004252 0.008319 0.015975 0.016854 0.003991 0.001764 0.020341 -0.003587 -0.004918 0.006110 0.017363 0.004298 0.015230 0.001052 0.016486 0.017831 -0.006908 -0.001588 -0.037891 0.005680 -0.002258 0.002126 0.008467 -0.005129 0.012006 -0.001108 0.008534 0.005796 0.012570 0.002555 0.009219 0.040831 0.018662 0.026597 0.001553 0.033745 0.008053 -0.010357 0.011364 0.001829 -0.013429 0.016746 -0.004835 0.004480 -0.009863 -0.000638 -0.008100 0.000452 0.003287 0.000339 0.001043 0.026334 -0.005164 0.006697 0.026742 0.002824 0.019325 0.008892 0.030626 -0.005905 0.029000 0.005084 0.005176 0.004269 -0.005253 0.010236 0.009729 -0.010495 0.011126
-0.006874 0.014370 0.012166 -0.005838 -0.003644 -0.009577 -0.015371 -0.013547 0.018809 0.005519 0.004763 -0.016547 0.000888 0.012838 -0.012519 -0.018191 0.013696 0.000341 -0.005750 0.015096 -0.014597 0.004795 -0.012487 -0.011556 -0.015211 0.014285 -0.017913 -0.001242 0.013034 -0.006609 -0.009611 0.018486 -0.017623 0.005712 -0.013657 0.019184 -0.017866 0.003724 -0.009858 -0.022122 0.007243 -0.012773 0.010119 -0.004605 0.002576 -0.012059 -0.014818 -0.019887 0.008252 0.006899 -0.011789 -0.017507 0.014283 0.005736 0.000046 -0.016372 -0.017526 0.018507 -0.011827 -0.003972 0.012686 -0.016867 0.000413 -0.000092 0.010923 -0.017015 -0.025504 -0.030087 -0.021610 0.006776 -0.004680 -0.016917 -0.010110 -0.025038 -0.044945 -0.032231 -0.023192 -0.028350 -0.023098 -0.003633 -0.016840 0.010214 -0.010702 0.009643 0.004869 -0.009423 -0.010688 -0.000690 0.006943 -0.018808 -0.007382 -0.021964 -0.031024 -0.020169 -0.038999 -0.036643 -0.028989 -0.015156 -0.029206 -0.027587 -0.014432 -0.011763 -0.009064 -0.012031 -0.020442 -0.044548 -0.049133 -0.032752 -0.007172 0.004499 -0.005754 -0.012979 -0.009520 -0.019134 -0.005433 0.018087 0.007602 -0.003009 0.006469 -0.015025 -0.050897 -0.038153 -0.014709 -0.026227 -0.034458 -0.011519 -0.013396 -0.019158 -0.006174 -0.015039 -0.015644 -0.012773 0.007147 -0.011026 -0.013619 -0.023455 -0.006233 -0.008940 -0.013262 -0.006528 -0.003407 -0.017061 0.015968 0.008357 0.008992 -0.020306 -0.016708 -0.031455 -0.017416 -0.020416 -0.022674 -0.011690 -0.007732 -0.025686 -0.009544 0.014464 -0.011494 0.012068 -0.003311 -0.010317 0.008840 -0.013808 -0.014252 -0.012281 -0.003705 -0.006891 -0.011297 0.016778 -0.002312 -0.007301 0.012972 0.003398 -0.010564 0.032047 -0.023438 0.005955 0.000008 -0.011413 0.003010 -0.023268 -0.005820 -0.015381 -0.021453 -0.010631 -0.014042 -0.003433 -0.017112 -0.005110 0.008633 -0.010864 0.017632 0.015559 0.034999 -0.011094 0.014806 0.017856 -0.007821 0.006221 0.007100 -0.008627 0.008339 -0.007578 -0.000633 -0.002141 -0.010733 0.002496 -0.019781 -0.006941 -0.005038 -0.017509 0.000349 -0.014278 -0.017353 -0.004032 -0.011541 -0.001773 -0.028208 -0.001448 0.006265 0.006221 0.013673 -0.012574 0.011016 0.008450 0.016743 -0.009589 0.000544 0.001796 -0.000596 0.005721 0.000347 0.005756 0.001691 -0.000163 0.018223 -0.016212 -0.010334 -0.017441 -0.036703 -0.006101 -0.020094 -0.012724 0.004101 -0.016253 0.025454 0.005974 0.003784 0.016101 0.021141 0.026226 0.007562 -0.003788 -0.002912 0.014562 -0.009338 -0.012324 0.006597 0.011718 0.005963 -0.000161 -0.005975 -0.007537 -0.006151 0.001893 -0.015887 0.004718 -0.027882 -0.013938 -0.003065 -0.005413 -0.000855 0.017267 -0.003171 0.016288 0.004957 -0.005549 0.044414 0.045301 0.008043 0.000690 0.009004 0.015727 0.013180 -0.020978 -0.028691 0.020295 0.008460 0.021037 0.019801 0.017241 0.009507 0.010155 0.032149 -0.003036 -0.004026 0.014047 0.022753 0.016619 0.010917 0.014563 -0.005276 0.011556 0.048462 -0.010183 -0.001920 0.041320 0.019985 0.003033 0.003592 0.022355 -0.018179 0.008094 0.024673 0.003020 -0.000026 -0.003794 -0.008352 -0.005368 0.024696 0.001062 0.020066 0.002057 0.008297 0.002400 -0.000741 -0.000632 -0.008578 -0.013922 0.000419 -0.023624 -0.019267 -0.022603 -0.002987 0.041850 0.033084 -0.002724 0.005542 -0.005779 -0.002728 0.034074 -0.008871 -0.020423 0.005145 0.014383 0.009193 0.010750 0.006381 0.015598 0.005096 0.020164 -0.005005 -0.005464 0.015747 -0.009153 0.002211 0.005383 -0.011732 0.014372 -0.005802 -0.027842 -0.024008 0.025660 -0.008656 0.004694 -0.004983 0.004059 0.001767 -0.001044 -0.004683 0.018355 -0.000733 -0.002281 0.023041 0.000194 0.006044 0.010492 0.010461 0.009394 -0.011367 0.006986 -0.009527 0.016195 0.005673 -0.007056 0.000933 -0.009651 0.012105 0.010398 -0.004680 -0.011870 0.002938 0.008408 -0.017938 0.014749 0.000358 -0.009613 0.006409 0.018602 0.006541 0.012005 -0.018337 0.014643 -0.009812 0.020975 0.001236 0.010521 -0.013026 0.007653 0.008635 0.001353 -0.000069 0.004861 0.035780 -0.003819 -0.013250 -0.009050 0.027932 -0.018422 0.015490 0.001601 -0.011099 -0.012169 -0.002388 -0.014275 -0.004115 -0.031742 -0.000181 0.009540 0.015510 -0.001128 0.014213 -0.007193 0.011518 0.016968 -0.007482 0.005475 0.007699 -0.002917 0.002916 0.015623 -0.022450 0.005175 -0.000704 0.009989 0.009694 -0.030575 0.011887 -0.017058 0.007067 -0.014317 0.008634 0.020396 0.018287 -0.000442 -0.001687 -0.008752 0.006545 -0.007493 -0.004369 0.006791 0.007922 0.008895 0.007332 0.011398 0.000031 0.006005 0.011231 -0.011147 -0.000426 0.028819 0.009574 0.018084 0.003655 0.004590 0.026738 -0.005587 -0.014211 -0.007598 0.011562 -0.017431 -0.010805 0.019355 0.005225 0.010613 0.009134 -0.019531 0.009705 0.014043 -0.001320 -0.002337 0.011890 0.003307 0.023021 -0.021550 0.004357 -0.007661 0.006459 -0.025063 -0.013447 0.008796 0.029133 0.020422 0.012442 0.011394 0.008926 -0.015192 0.006859 0.014892 -0.013755 -0.012287 0.024005 -0.013172 -0.001191 0.019505 -0.005935 0.011565 0.005626 0.019861 0.006357 -0.003215 0.003447 0.002525 -0.006669 -0.037943 -0.000651 0.008068 0.003251 0.024566 0.004487 0.009610 0.012768 0.002124 0.014050 0.017988 -0.001269 -0.002544 -0.030343 -0.041280 0.006115 0.005499 0.006027 -0.000898 0.017822 0.009454 -0.000904 -0.014124 -0.013968 0.006812 -0.025248 -0.016793 -0.008175 0.009806 0.003197 -0.034531 -0.031088 -0.023883 0.005300 0.026850 0.006029 -0.000656 -0.011294 0.008143 -0.013719 -0.031330 -0.014523 0.005470 0.010669 -0.021796 0.019235 0.013877 -0.001691 -0.020041 -0.006979 0.005591 -0.004065 -0.014621 -0.001369 0.006813 -0.002659 -0.008062 -0.008559 -0.021509 -0.000711 0.000792 -0.002219 0.003770 -0.003210 0.015466 -0.005448 0.018793 -0.019176 -0.017444 0.003078 0.006944 -0.009461 0.021664 0.000874 0.003471 0.002153 -0.010091 0.001818 -0.020276 -0.000685 -0.002064 0.006431 0.010805 -0.002399 -0.005519 -0.003685 0.024814 0.002551 -0.011363 -0.005555 0.002070 -0.015372 0.003995 -0.011145 -0.006960 0.014866 -0.009296 -0.019029 0.012850 0.011286 0.004679 -0.026492 -0.016001 -0.015939 -0.000268 0.001116 0.005574 0.005995 0.008313 -0.006937 -0.005051 0.000900 0.025505 -0.007979 -0.013599 -0.013842 0.015852 -0.004312 -0.000258 0.006331 0.011615 -0.008854 -0.015428 -0.019919 0.007518 -0.008671 -0.020711 -0.011773 -0.024933 0.012579 0.009527 -0.011993 0.011292 -0.011658 0.003030 -0.008667 -0.001845 0.010574 0.017527 -0.005317 0.003304 0.015575 0.017717 -0.032561 0.011401 -0.019337 0.000242 -0.004171 0.005525 -0.011455 -0.001566 -0.013238 0.014560 -0.006955 -0.024310 -0.025422 -0.015276 -0.003138 0.002236 -0.014282 0.007533 -0.023431 0.006046 -0.003548 -0.005359 -0.012416 -0.011447 -0.002883 -0.006464 -0.014036 -0.004065 0.003447 0.000583 0.008720 -0.006627 0.003333 0.003508 -0.009546 -0.005557 0.012873 -0.011458 0.004352 -0.008015 -0.005722 -0.039059 -0.054001 -0.030118 -0.007168 -0.043709 -0.009934 -0.028328 -0.017410 -0.021269 -0.023223 -0.019498 -0.023251 -0.037038 -0.020017 -0.021992 -0.010264 -0.013960 0.001799 -0.012676 0.007373 0.012813 -0.012807 0.010206 0.007130 -0.011919 -0.016620 -0.010667 -0.036834 -0.017339 -0.017689 -0.036171 -0.031637 -0.017727 -0.034998 -0.026151 -0.021788 -0.023153 -0.039889 -0.028655 -0.023450 0.007061 -0.008858 -0.027755 -0.012959 0.013220 -0.001251 0.001190 0.015954 -0.001245 0.019220 -0.016361 -0.015769 -0.007219 -0.009722 -0.005833 -0.001629 -0.016580 0.007857 0.011878 -0.023676 -0.000916 -0.014521 -0.006616 -0.024277 0.008369 -0.007386 -0.009946 -0.016783 -0.016603 -0.011853 0.000514 0.010505 -0.018742 0.016942 -0.017450 0.003618 -0.019232
-0.005146 -0.003301 -0.008702 -0.013511 -0.005753 -0.003611 0.012447 -0.001353 -0.014482 0.019858 0.004962 -0.007321 0.018697 0.004656 0.003500 -0.019597 0.019573 -0.003697 -0.005639 -0.014132 0.008236 -0.017568 -0.004213 -0.010932 0.015161 -0.018719 0.000599 0.013688 0.002691 -0.016475 -0.003195 0.001903 -0.004575 0.001280 0.010354 -0.002718 -0.003457 0.013962 -0.017850 0.010253 -0.010427 -0.004882 -0.004939 0.022683 -0.009667 -0.005358 -0.018465 0.008217 0.019813 -0.019448 0.011675 -0.016802 -0.008972 0.010487 0.005350 -0.013638 -0.001711 -0.013795 -0.000908 -0.004692 -0.012412 -0.004094 -0.000624 0.006675 0.001231 -0.005425 0.004889 -0.003501 0.020143 -0.029548 -0.010198 -0.007802 -0.009466 -0.022345 -0.008759 0.020839 0.024077 0.026146 0.014240 0.005670 0.014873 0.016857 0.007170 -0.016019 0.013999 -0.008952 0.014786 -0.013569 -0.016897 0.010550 -0.017654 -0.020171 -0.018374 -0.003819 -0.037771 -0.025892 -0.056106 -0.009760 -0.034548 -0.010176 0.014544 0.009698 -0.029949 0.020338 0.017182 0.018661 -0.009076 -0.010146 -0.007740 0.002153 0.006999 0.003357 0.002235 0.010323 0.010519 0.001592 0.001300 0.004554 -0.007006 0.002009 0.003286 -0.007229 0.006462 -0.004257 -0.003036 -0.008510 -0.004400 -0.006252 -0.005761 -0.003672 -0.004620 0.006700 -0.007118 0.013723 -0.016209 0.008571 -0.006152 0.004274 0.010939 -0.002885 0.019583 -0.019114 0.003613 -0.002992 -0.014390 0.003021 -0.010960 0.003353 -0.014780 -0.012372 0.010780 -0.018599 -0.010091 -0.003102 -0.009746 -0.006942 -0.002034 -0.014826 -0.007292 -0.002610 -0.008562 -0.003207 0.004500 -0.005647 0.005145 -0.029966 -0.002684 0.001574 0.015992 0.006801 0.002083 0.001334 0.031503 -0.014774 -0.026273 -0.039625 -0.025760 -0.009580 -0.040148 0.001920 -0.013845 -0.021551 -0.000149 -0.015635 -0.015276 -0.009154 -0.002439 -0.017176 0.004138 -0.008078 0.018549 0.013792 -0.025676 -0.026779 -0.019195 -0.006431 0.001080 -0.017181 0.011190 -0.020839 -0.017092 -0.002304 -0.009679 -0.031528 -0.032311 -0.021620 0.002061 0.002957 -0.000679 -0.003621 -0.013110 -0.016462 0.001500 -0.006668 -0.002368 0.014290 0.014491 0.010004 -0.021075 0.013829 -0.028605 -0.003727 -0.017599 -0.017002 -0.001124 -0.000674 0.004685 0.007817 0.005343 0.009424 -0.026775 -0.011767 -0.026232 -0.008999 0.005872 -0.027472 0.009587 0.007638 -0.009204 0.008106 -0.008710 0.002042 -0.006491 -0.010910 -0.009530 -0.008409 -0.006790 -0.001226 -0.048664 -0.001281 -0.003008 0.010409 -0.009468 -0.004312 -0.001210 0.019610 0.013688 -0.013862 -0.008427 -0.013228 -0.034512 -0.026123 -0.020852 0.002621 -0.015552 0.004056 0.008501 -0.000296 0.015537 -0.005889 -0.002313 -0.009627 -0.012359 0.000233 -0.024402 -0.011763 0.006846 -0.033304 -0.007810 0.009121 0.018995 -0.005607 -0.013051 -0.010312 -0.004728 -0.009655 -0.003456 0.002582 0.012190 -0.000536 0.014566 0.013983 0.001972 -0.000618 0.015093 0.011718 -0.004981 0.000218 -0.012715 -0.014141 -0.026564 -0.020644 -0.011660 -0.012826 -0.017529 0.005967 0.006385 0.019383 -0.012028 0.013671 0.004942 0.020137 0.010333 -0.006850 0.002472 -0.002219 -0.012661 -0.026582 -0.019095 -0.008917 -0.004682 0.010922 0.009921 0.007632 0.008111 -0.015151 0.000514 0.013659 0.002291 -0.013693 -0.029983 -0.002053 -0.004870 0.005272 -0.008215 0.002436 -0.011888 0.015043 0.013758 -0.009373 0.005653 0.002026 -0.015615 0.013856 -0.034898 0.029051 -0.007229 -0.033332 0.012838 -0.004407 0.014599 0.020310 -0.013226 -0.001907 -0.030692 -0.014868 -0.009464 0.002815 0.005982 0.006693 -0.019891 0.013923 0.021809 -0.008215 0.013930 -0.007708 -0.006031 0.015409 -0.003299 0.016522 -0.017193 -0.020426 -0.026955 0.002092 -0.003398 0.004307 0.002594 -0.004026 0.040477 -0.006350 0.022728 0.010994 -0.008363 -0.029962 -0.002233 0.015594 -0.017932 -0.018181 -0.005636 -0.005074 0.011539 0.000309 0.004029 0.002883 -0.001645 0.010307 0.005960 0.015595 -0.014252 -0.012705 -0.009311 0.000915 -0.010309 0.000587 -0.004500 -0.007759 0.054367 -0.004829 0.005631 0.002997 -0.031052 -0.019733 0.010553 0.010114 -0.000234 0.001433 0.013629 0.018128 -0.009232 -0.017286 0.000910 0.010589 0.001643 0.000590 -0.018047 0.000197 -0.016948 0.004326 -0.016458 -0.004519 -0.012507 0.004645 0.011277 -0.007223 0.021701 0.001091 0.020687 0.015863 -0.006412 -0.024468 -0.025908 0.000953 0.007328 -0.020147 -0.015405 -0.009834 0.005753 -0.002952 0.013650 0.002791 0.017532 -0.001929 0.011737 -0.016879 0.009952 0.005890 -0.006620 0.014500 -0.009505 0.004345 -0.006302 0.015370 0.011207 -0.003501 -0.000280 -0.036243 -0.003575 -0.023131 -0.020564 0.004368 0.016618 -0.008203 -0.020305 -0.008361 -0.010131 -0.004389 0.014331 -0.007985 -0.001449 -0.014383 0.000727 -0.006979 -0.025482 -0.004771 0.008443 -0.012932 0.010007 -0.001184 -0.000292 0.008075 0.004357 0.001108 -0.006152 -0.025096 -0.001110 0.009631 0.013403 0.006114 -0.017168 -0.005458 -0.011828 -0.017437 0.012203 0.001059 0.015809 -0.010365 0.005832 -0.014997 -0.007579 -0.016689 -0.038103 -0.039176 0.005645 0.001293 -0.006202 0.006874 0.012660 0.008259 0.020744 -0.008745 -0.010317 0.014769 0.000540 0.007526 -0.016346 -0.038769 -0.021881 0.014415 -0.019138 0.002456 0.005838 0.016561 0.002279 -0.013875 -0.014006 -0.017480 -0.003155 -0.038280 0.011232 0.018059 -0.012806 0.005209 -0.011656 -0.002787 -0.003352 0.004504 0.002274 0.002482 0.001325 0.003212 -0.016030 0.005054 0.009562 -0.016264 -0.002936 -0.009980 0.002736 -0.004670 0.023812 0.001430 0.006936 0.017738 -0.006234 -0.000116 -0.006329 -0.029241 -0.013803 -0.007612 0.006770 0.005640 0.007219 0.013808 0.004688 -0.010949 -0.005246 0.007533 -0.003392 -0.004407 0.028020 -0.018813 0.024945 0.005920 -0.034168 -0.005414 -0.014813 -0.000491 0.006622 -0.012622 -0.014901 -0.017327 0.008161 -0.007825 -0.008792 0.039700 0.001332 0.003858 -0.005384 0.002963 0.007394 0.001586 0.007139 0.010845 0.004115 -0.000522 0.002961 0.004730 -0.012240 -0.017192 -0.029715 -0.047759 0.002287 0.001902 0.007953 0.004107 0.015440 0.000803 0.005007 -0.011372 -0.015562 0.003213 -0.015083 0.005009 -0.003864 -0.009141 -0.007308 -0.005359 -0.004788 -0.018496 -0.008863 -0.008226 -0.001112 -0.009844 0.005903 0.009940 0.021281 0.015702 -0.018909 0.001924 0.010937 -0.010806 0.002575 0.014740 0.002696 0.001393 0.017583 -0.008198 -0.006188 -0.007704 -0.016335 0.018153 0.023211 0.013338 0.003334 0.002894 -0.006970 0.000492 -0.004068 -0.008350 -0.005629 0.004835 -0.002943 0.007698 0.001347 -0.018032 -0.011270 -0.021876 -0.004508 -0.017502 0.019493 0.004446 -0.002028 -0.015548 -0.000222 -0.011157 -0.018895 -0.010937 -0.013353 0.027735 -0.003441 0.011701 -0.010978 0.006158 -0.000994 -0.005006 -0.008211 -0.007132 -0.005045 -0.005781 -0.000265 0.009901 -0.010527 0.008330 -0.005987 -0.011371 -0.001230 -0.000980 0.008523 0.012646 -0.001892 -0.010101 0.008955 0.014298 0.002538 0.015070 -0.013241 -0.016307 -0.019398 -0.045887 -0.030855 -0.029027 -0.044864 -0.034079 -0.030812 -0.011385 -0.001531 -0.055881 -0.037657 -0.018722 -0.023816 -0.017629 -0.001623 0.005446 -0.019047 -0.003874 -0.009244 -0.001466 0.000216 0.018104 0.010202 -0.004536 0.010915 0.010322 0.017897 -0.014053 -0.015123 0.004514 -0.007881 0.008163 -0.028153 -0.038400 -0.023149 -0.021963 -0.034282 -0.001789 -0.022303 -0.023777 0.015848 -0.008640 -0.019823 0.015156 -0.018307 0.006838 -0.008403 -0.002053 0.009998 -0.003433 -0.014455 -0.007856 0.008053 0.001253 -0.018662 -0.014777 0.013667 0.011820 -0.005851 0.018502 0.011026 0.000857 0.007159 -0.001154 0.007134 0.013184 -0.011074 0.001051 0.003018 0.011585 -0.017328 -0.002462 -0.017460 -0.019394 0.006328 -0.014357 0.010012 -0.004408
-0.011318 0.007749 -0.015562 0.013042 -0.010240 0.000996 0.008287 0.019096 -0.000821 -0.009052 0.012541 0.010890 0.013181 -0.005132 0.002417 0.011305 0.009506 0.008818 0.001083 0.011671 -0.017006 -0.010799 0.009910 -0.001787 -0.000731 0.003460 -0.004779 -0.014275 -0.000885 0.001003 -0.011356 -0.018748 0.000023 -0.001820 -0.015278 0.010913 -0.002319 0.007439 -0.020374 -0.007426 0.001210 0.000782 -0.009469 0.007776 -0.000661 0.003035 -0.007950 0.004785 -0.014652 -0.003034 -0.012427 0.010330 0.018240 -0.019372 -0.004371 0.003852 0.004477 0.019594 -0.013789 0.002936 -0.008806 0.008504 -0.001915 -0.011207 -0.016807 0.008247 -0.009416 -0.024659 -0.003841 -0.006880 -0.003829 0.004564 -0.022882 -0.003316 -0.005349 -0.000588 0.000418 -0.000444 0.018232 0.010112 -0.018405 -0.008337 -0.016208 0.010783 0.016102 -0.002291 0.015006 0.000280 0.001204 0.006983 0.011770 -0.011420 -0.026877 -0.007104 -0.012295 0.028365 -0.005115 -0.008291 -0.004445 -0.029617 0.032674 -0.008550 0.005603 0.006577 0.015574 -0.021515 0.014452 0.012186 -0.002890 -0.000983 -0.008069 -0.012027 -0.004091 0.004846 -0.015852 0.014797 0.015372 0.017978 -0.016319 0.015440 0.020456 -0.016131 -0.005890 -0.004060 -0.004974 -0.007202 0.012435 0.002742 -0.011757 0.010519 -0.015044 0.010403 -0.003308 0.000331 0.021406 0.029560 0.003400 0.011874 0.014124 0.015251 0.013253 -0.002963 0.011698 0.007887 -0.003441 -0.019192 -0.003764 -0.011104 -0.000100 -0.002338 -0.007008 0.004117 -0.003446 -0.009314 0.000814 -0.008128 -0.009152 0.007317 -0.004665 0.010207 -0.006741 -0.001747 -0.008092 -0.001565 0.015589 0.009166 0.007338 0.000453 -0.000430 0.015760 -0.013215 -0.002852 0.009509 0.003888 -0.007353 0.004591 0.005199 -0.007636 -0.013861 0.008930 -0.006600 0.001640 -0.001278 0.012601 -0.016040 0.010592 0.005769 -0.004576 0.000843 0.009657 0.008994 0.007702 -0.000106 0.009344 -0.005980 0.018267 -0.012950 0.010049 -0.016908 0.003045 -0.018568 0.007198 -0.004793 -0.009304 0.004924 0.009343 0.008039 0.003550 -0.000248 -0.003683 0.003598 0.001488 -0.010279 0.011968 0.000465 0.003035 0.001355 0.002687 -0.000099 0.001098 -0.005334 -0.006069 -0.013194 0.013619 0.009730 -0.008348 0.016305 0.008984 -0.005205 0.003139 0.014705 0.004574 0.001848 -0.009384 -0.007893 0.006095 -0.000824 0.004517 -0.005063 -0.003546 0.014718 0.002011 0.012995 -0.003977 0.020213 -0.018651 0.002703 0.010140 -0.017681 -0.020893 -0.008355 -0.006194 0.007592 -0.014789 -0.008519 0.007707 -0.020489 0.018926 -0.027747 0.017554 -0.002151 0.002596 0.011308 -0.007821 0.012833 -0.001901 0.009921 -0.007750 -0.003521 0.003875 -0.007228 0.010841 -0.014606 0.000116 -0.016108 0.006934 -0.006447 -0.030638 -0.025089 0.015292 0.000374 0.021700 -0.004279 -0.015523 -0.004448 0.016138 -0.010173 -0.004562 0.026136 -0.003507 -0.000622 0.007472 0.001547 0.001268 -0.013657 0.010192 -0.006839 0.004699 0.013266 -0.003946 0.014867 0.013458 0.014104 0.001478 0.002529 -0.013084 -0.016057 0.009372 -0.015023 0.003640 0.033621 -0.015185 -0.020744 -0.000854 0.001839 0.009920 0.002599 0.004702 0.003570 0.005853 0.001828 -0.002332 -0.025939 -0.024730 -0.008864 0.004556 -0.000572 -0.000085 0.010459 -0.009262 0.001518 -0.008972 -0.013624 -0.021663 -0.004499 -0.006441 0.008103 -0.000277 0.006143 -0.007761 0.036756 0.034179 0.022860 -0.011367 0.008090 0.001330 -0.003904 0.006080 -0.003209 0.013562 -0.019510 -0.024421 -0.010733 -0.008953 0.005150 -0.001106 -0.007333 0.012450 -0.005071 0.028032 0.012288 0.024548 -0.009596 -0.015260 -0.005410 -0.010190 0.006568 0.003013 0.011153 -0.041868 0.011255 0.006534 -0.002029 0.024926 0.028844 -0.012552 0.011511 -0.024062 0.006821 -0.055460 0.003988 -0.000316 -0.005562 -0.003733 0.018720 0.005234 0.015483 -0.002983 0.017183 0.010086 -0.005622 -0.014314 -0.009973 -0.009976 0.019919 -0.012882 0.002703 0.027385 0.009890 0.014673 0.006450 -0.014173 0.006975 0.013110 0.008108 -0.020259 -0.023152 -0.034037 -0.017225 0.015336 -0.000293 -0.008977 -0.003733 -0.000713 0.001489 0.010323 0.011695 -0.006488 -0.021271 -0.019243 0.000317 0.003008 -0.006976 -0.014459 -0.006338 0.010443 -0.003595 0.004456 0.018973 0.011968 0.016431 -0.009315 0.020048 -0.020777 -0.023885 -0.027082 0.011007 -0.001801 -0.007517 0.005352 -0.008297 0.008273 -0.005052 -0.003467 0.003429 -0.004260 -0.012908 -0.015911 -0.009891 -0.001582 0.006811 -0.007018 0.014807 -0.007758 0.011841 0.013410 0.004820 0.011902 0.005672 0.015377 -0.003693 -0.047995 -0.047520 0.003555 -0.005002 0.003203 0.002797 0.000858 0.000028 -0.004031 0.005728 0.007630 -0.005754 0.001283 -0.009537 -0.015372 0.001083 -0.004717 -0.013848 0.004427 -0.002810 0.014682 0.018030 -0.003114 -0.002582 -0.001648 0.027175 0.006285 0.011665 -0.055135 -0.011650 0.008946 0.012854 -0.007949 0.004139 0.001686 0.007314 -0.007684 -0.002233 -0.009658 0.012505 0.004419 -0.026933 -0.002637 0.016325 -0.002697 -0.003274 -0.034805 0.011362 -0.001411 -0.012250 -0.009297 0.011264 0.009972 -0.002262 0.015076 -0.017151 -0.026974 -0.005722 0.000384 0.001000 0.011370 -0.012093 0.000843 -0.009612 0.000154 0.000083 -0.000498 0.006723 -0.019628 -0.004985 -0.026763 0.014026 0.000685 0.012697 -0.008419 -0.002590 -0.015653 0.012823 0.022235 -0.001945 0.016972 -0.015327 -0.001731 0.027023 -0.035084 -0.013766 -0.009054 -0.000197 -0.006041 -0.005063 -0.001526 -0.002562 -0.013938 -0.003270 -0.016643 -0.001456 -0.016680 -0.000129 0.008527 0.014330 0.006421 -0.013224 -0.025716 0.001329 0.019493 -0.017234 -0.003389 0.014033 -0.016660 0.006100 -0.002692 0.005090 0.009407 -0.012060 0.009760 -0.002078 0.010164 -0.001281 -0.005115 0.004745 -0.001251 0.004195 -0.010221 0.003480 -0.024206 -0.012358 0.007119 0.001618 0.002771 0.003042 -0.011687 0.004057 0.010852 0.004073 0.005625 -0.013042 0.000374 0.009118 0.010002 -0.000052 -0.027421 -0.000868 0.001201 0.001130 -0.023353 0.020615 -0.016343 0.006545 0.007807 -0.015028 -0.002115 -0.011591 -0.030749 -0.013723 0.008303 -0.019696 -0.015518 -0.004935 -0.007987 -0.012628 -0.000500 -0.017728 0.006930 -0.005719 -0.006457 -0.004048 0.024386 -0.008197 0.032620 0.000511 0.000885 0.001909 0.004836 -0.008735 0.003339 0.006290 0.003079 -0.022992 0.004793 -0.005045 -0.006460 0.014331 0.007584 0.016645 0.002862 -0.006785 -0.002902 -0.029194 0.019983 0.004651 -0.005271 0.005596 0.006728 0.002055 -0.009744 0.007736 0.005947 -0.007803 0.013726 -0.006483 0.015775 -0.011241 0.011050 -0.012549 0.020656 -0.018914 0.010900 0.009186 -0.003484 0.017028 0.009663 -0.007458 -0.016218 0.019489 0.008319 0.005802 -0.007929 0.000490 -0.022925 -0.011911 -0.000232 0.000989 0.003397 -0.002523 -0.009927 0.023127 -0.016882 0.006564 0.009385 0.000838 0.021103 0.005619 -0.009981 0.001007 -0.007718 -0.004787 0.014174 0.015687 -0.017298 -0.012920 -0.016523 0.000580 -0.002895 -0.018745 0.017602 0.029306 -0.032343 0.013124 0.011201 -0.023227 0.017695 -0.007635 -0.004509 -0.010911 -0.002354 0.009484 -0.013031 -0.021040 -0.038682 -0.047315 -0.002828 -0.014263 -0.021502 -0.004154 -0.008664 -0.000071 -0.003659 0.005987 0.002629 -0.008522 0.006983 0.014458 -0.004604 0.008444 0.019084 0.013923 0.027474 0.034814 0.030832 0.026557 0.001847 0.009878 0.000356 0.005892 0.008279 -0.004907 -0.000455 0.007956 0.004952 -0.017885 -0.001397 -0.001467 -0.007196 -0.016068 0.013874 0.012869 0.005493 0.014709 -0.016717 -0.016620 0.015679 0.017905 -0.005057 0.015465 -0.013435 -0.002756 0.013529 -0.003593 -0.001014 0.008039 -0.004861 0.009304 0.003666 -0.008927 0.016922 -0.013566 -0.008088 0.021291 -0.005248 -0.019066 -0.011612 0.005112 -0.019271
0.004374 0.004191 0.004717 -0.013134 -0.009443 -0.008502 0.006688 -0.008486 0.008017 0.005995 -0.003695 -0.000111 0.006210 0.005270 -0.017329 0.008500 0.008191 -0.006937 0.004980 0.010847 0.011655 0.000213 0.013942 0.012243 0.014513 0.000198 -0.016074 0.015164 0.004538 -0.006316 0.008644 -0.019916 0.016801 -0.006226 0.005402 -0.017440 -0.018924 0.008632 0.006378 0.003594 -0.005626 0.012403 -0.011607 -0.021505 -0.037391 -0.000924 0.011404 -0.003691 -0.015135 -0.001744 -0.015774 0.011662 -0.007694 -0.002843 0.012831 -0.003654 -0.014843 0.006940 0.011861 -0.005483 0.001177 -0.009286 0.001195 -0.009488 0.005093 0.010745 -0.014536 -0.019944 -0.004361 0.004601 -0.014461 -0.004147 -0.025111 -0.019819 -0.036590 -0.007587 -0.009102 0.003947 -0.008393 -0.028488 -0.022784 -0.007063 0.003188 -0.003129 -0.019681 0.019164 0.005336 -0.010929 0.016692 -0.004785 -0.023764 -0.033928 -0.030305 -0.027877 -0.012327 0.000906 -0.019259 -0.027536 -0.010114 -0.033529 -0.030978 -0.030249 -0.011111 -0.003456 -0.035845 -0.004035 -0.005635 0.024562 0.009030 -0.011581 -0.008788 -0.004740 -0.019215 -0.016035 -0.015025 0.013660 0.021624 0.003722 -0.020729 -0.024809 -0.021422 -0.011047 -0.002541 -0.021075 -0.005914 -0.011109 0.005785 -0.013253 0.005133 0.000194 -0.017104 0.007931 0.000356 0.003704 0.009263 -0.010188 0.001377 0.008575 -0.000950 -0.013342 0.006446 0.011427 -0.011572 -0.023450 -0.012963 0.007376 -0.004329 0.002657 -0.022871 0.000668 -0.001048 -0.010822 0.002787 -0.010986 -0.002476 0.001579 -0.010010 0.014645 -0.011065 -0.004237 0.005582 -0.004517 -0.010363 -0.022745 0.017916 0.003988 0.006031 -0.014802 -0.015784 -0.017395 0.018447 -0.026933 0.023947 -0.027696 0.004916 0.005328 -0.011070 -0.014137 0.000050 -0.012186 0.002109 0.000867 -0.018806 0.008985 -0.009446 0.007565 -0.014895 0.017128 0.002476 -0.013831 0.015815 0.012166 0.005385 0.005948 -0.002673 -0.001155 -0.003427 -0.009058 0.005930 -0.007180 -0.025028 0.001978 -0.017063 -0.001021 0.009979 0.002427 -0.004506 -0.011882 -0.015735 -0.005031 -0.006760 -0.007542 -0.003767 -0.013635 0.005404 -0.006616 -0.020942 0.008215 -0.003948 0.004568 0.007325 -0.007536 0.009625 0.006572 -0.017964 0.011672 -0.000657 0.015151 0.003581 -0.005137 0.006367 -0.021275 0.004596 -0.005496 0.008102 -0.000480 -0.003188 0.001318 -0.010672 -0.004457 0.000971 -0.001822 -0.003782 -0.006867 0.015203 0.005807 0.003130 0.008995 0.003792 0.011289 -0.010323 0.003362 -0.006878 -0.006768 -0.020511 -0.036376 -0.023710 0.012014 0.010990 0.008321 -0.000863 0.000734 -0.000627 0.002871 -0.009035 -0.011447 -0.021513 -0.017713 -0.000054 -0.013998 0.003928 -0.002018 -0.008131 0.000151 -0.004589 0.002569 0.004235 0.042834 0.026886 0.001078 0.011298 0.010871 -0.021525 -0.040675 -0.003339 -0.009736 0.006971 0.007840 -0.002562 0.017070 0.002888 0.016188 0.016164 0.021436 -0.002044 -0.023650 -0.009304 0.000924 -0.003849 0.018198 -0.014622 0.008078 0.017205 -0.008862 -0.026450 0.012597 -0.000006 -0.010011 -0.014583 -0.026579 -0.003270 -0.022209 0.015135 0.007826 0.005742 0.011862 0.017627 0.013702 0.026011 0.011131 0.009439 -0.000522 0.021232 0.009666 -0.009630 0.005325 -0.016462 -0.010849 0.012620 -0.017462 0.005423 -0.030694 0.009484 0.006976 -0.003191 0.004798 0.003731 0.008456 -0.030918 0.004237 -0.011988 0.014664 -0.000011 0.017185 -0.001107 0.002142 -0.001921 0.006958 0.005990 0.008402 0.005761 0.004287 0.001261 -0.003932 0.002030 -0.003744 0.000510 0.021133 -0.000255 0.029563 0.018613 -0.018514 0.006602 0.012325 -0.008202 -0.004167 -0.020471 -0.020095 0.008151 -0.014817 0.017370 0.000080 -0.002464 0.016892 0.004673 -0.005792 0.005288 0.014673 -0.000009 0.015143 0.001931 0.008389 0.006287 0.000660 -0.000059 -0.014459 0.010916 -0.002434 0.005828 0.017340 -0.011129 -0.004039 -0.004391 -0.006526 -0.002526 -0.014411 -0.005019 0.004581 0.005675 0.012615 0.003169 -0.004355 -0.009032 0.020792 0.001905 0.014198 0.003679 0.016152 0.005889 0.000796 -0.009947 0.016483 0.008504 -0.008035 -0.001117 -0.013196 0.008603 0.011287 -0.013643 -0.012096 -0.005362 -0.008172 0.013562 0.025171 0.012502 -0.010634 -0.012612 0.007805 0.002512 0.004802 0.005474 0.002402 0.007852 0.017070 0.005865 0.006373 0.003630 0.007525 -0.005488 0.008757 -0.027780 0.010315 0.014560 -0.006568 -0.012272 0.003534 -0.018446 -0.005124 0.006187 0.008172 -0.008802 0.004962 0.007129 -0.021612 0.015240 -0.012284 0.019250 0.003309 0.005239 0.005882 0.002764 0.016473 0.009909 0.009146 0.006252 0.007192 -0.000934 -0.010029 -0.006088 0.004183 -0.044294 0.016408 0.015791 -0.039844 -0.033970 0.012162 0.010340 0.005797 -0.016321 -0.017980 -0.007227 0.004830 -0.000940 -0.005404 0.007530 0.007008 0.015124 0.012058 0.015938 -0.007371 0.018158 -0.002012 0.009531 -0.005967 -0.003327 -0.015726 0.005739 -0.012661 0.017652 -0.011705 0.003897 -0.015948 -0.035471 -0.002755 0.013324 -0.006647 0.014599 -0.048739 -0.051678 0.000721 -0.000075 0.004347 0.002840 0.018803 0.011055 0.018201 0.016485 0.017157 -0.002522 -0.000310 -0.003907 -0.007617 -0.020356 -0.007090 -0.016070 -0.016356 -0.020413 -0.017327 0.013002 -0.022067 -0.004934 0.003998 0.002436 0.001106 -0.019832 -0.032294 -0.044556 -0.011148 0.004694 0.001322 0.001782 0.002759 0.015963 0.001776 0.013564 -0.010610 -0.008734 -0.001562 -0.017081 -0.012812 -0.005434 -0.002880 0.004479 -0.017120 0.010061 -0.006165 -0.028319 -0.050724 -0.014222 0.001554 0.017688 0.016989 0.011477 -0.035517 -0.040989 0.009618 -0.015752 -0.003685 0.004391 -0.014148 0.001314 -0.010072 0.005190 0.002988 -0.008343 0.000831 0.001190 0.006983 0.003187 0.007492 -0.018806 0.008588 0.018260 -0.002609 -0.009657 -0.034608 -0.010504 -0.005479 0.004769 0.011610 -0.002940 -0.031197 -0.024969 0.002319 0.001935 0.007140 -0.000976 0.015955 -0.004368 0.000293 -0.003375 -0.005075 -0.000227 -0.012028 0.000472 -0.000291 -0.008640 -0.009554 0.020391 -0.009643 0.005168 -0.005839 0.014337 -0.015938 -0.018739 0.002483 -0.007594 0.019479 0.003328 0.017960 -0.036093 0.021412 -0.003724 -0.005338 -0.013644 -0.007903 -0.008983 -0.001320 0.002780 0.003126 0.006141 0.010671 -0.007453 -0.002434 -0.005143 0.017948 -0.031726 0.021567 -0.036917 0.006951 0.013557 -0.017642 -0.004461 -0.003305 -0.001129 -0.015951 0.007018 -0.003568 -0.001083 -0.007130 -0.005462 -0.008320 0.006430 -0.003350 -0.000718 0.001285 0.011564 -0.002222 0.000705 0.009973 0.003091 0.022598 -0.004380 0.000997 0.016997 -0.000914 0.004996 0.011287 -0.011528 0.013602 -0.016883 -0.008450 0.007412 -0.016346 0.019001 -0.022134 -0.030700 -0.033027 -0.005198 -0.016582 0.007415 -0.014100 0.000344 -0.002152 -0.012651 0.002638 -0.008051 -0.002461 0.006325 -0.017042 0.013539 0.011138 0.021127 -0.000513 -0.002552 -0.010865 -0.011975 0.005254 -0.019015 -0.007947 0.008180 -0.019044 -0.016084 0.009583 -0.019310 -0.061851 -0.016151 -0.014617 -0.018037 -0.036338 -0.020497 -0.018569 0.002593 -0.012331 -0.012066 0.002529 -0.020611 0.015121 -0.011923 -0.036228 -0.018996 -0.053290 -0.022109 -0.013022 -0.019392 -0.019438 -0.020268 -0.011397 -0.017866 0.001893 -0.008074 0.012724 -0.017155 -0.033682 -0.026281 -0.047873 -0.024603 0.000689 -0.039544 -0.013261 -0.031928 -0.029771 -0.038925 -0.058173 -0.029697 -0.037848 -0.056092 -0.050549 -0.040734 -0.028511 -0.027249 -0.010663 0.014322 0.014893 0.000935 -0.016700 0.018588 -0.004729 -0.001705 0.014654 -0.004403 -0.014124 -0.017451 0.013445 -0.009183 0.000776 -0.009022 -0.013074 -0.004439 -0.026984 -0.037815 -0.011793 -0.011123 -0.003003 -0.001876 -0.011772 -0.023561 -0.017150 -0.022791 0.013229 -0.011694 0.002090 -0.002234 -0.002803
-0.003441 0.001157 0.002914 0.018906 -0.010540 0.009250 0.015933 0.005927 -0.009302 -0.007301 0.002386 -0.017618 0.005519 0.008689 -0.017178 -0.002516 0.004621 0.001732 -0.000432 0.016764 0.001020 0.012806 0.012417 -0.008266 0.017865 -0.001029 -0.016632 0.006881 -0.007192 -0.012930 0.016566 0.007464 0.018101 0.015057 -0.019320 -0.016298 0.017562 -0.005822 -0.014423 0.025125 0.014588 0.001907 0.015060 0.032972 0.049545 0.011743 0.004180 0.004496 -0.001875 0.006875 0.019445 -0.000702 0.018349 0.010123 0.016163 0.017884 -0.013257 -0.012192 -0.003798 0.001658 0.012591 -0.005004 0.023599 0.002036 0.002311 0.025057 0.009304 -0.012761 0.024438 0.029066 0.007205 -0.007386 0.010991 0.016917 -0.000908 -0.002412 0.019183 0.002897 -0.003953 -0.001927 0.006318 -0.014787 0.006700 0.003804 0.012165 0.006164 -0.004350 -0.012650 -0.001536 0.011212 0.010526 -0.009874 -0.023236 -0.001080 -0.007441 -0.006843 -0.018588 0.006448 0.001287 0.000944 0.004751 0.005691 -0.005465 -0.004064 0.016709 0.009043 -0.000967 0.044466 0.011315 -0.008177 -0.017304 -0.004365 0.004602 0.004773 -0.001171 -0.014101 0.002203 -0.018671 0.007299 0.016373 0.007459 -0.010216 0.012998 -0.010077 0.003358 -0.006129 0.006925 -0.013766 0.015396 -0.006485 -0.009185 0.004924 0.000615 -0.004122 -0.027050 0.006209 -0.010104 -0.007111 0.006862 -0.010803 0.016181 -0.016399 0.005541 0.010588 -0.005931 -0.027314 0.003008 -0.018184 0.004894 -0.009014 0.003767 -0.000932 0.006937 -0.006413 0.011081 -0.004583 0.007295 0.002366 -0.004627 -0.001908 -0.014128 -0.004449 -0.018212 -0.014049 -0.021512 0.026663 0.007644 0.015375 -0.004048 -0.007167 0.006087 -0.012862 0.009135 -0.030804 0.014948 0.003425 0.003160 -0.020483 0.002487 -0.019088 -0.002806 0.000877 -0.010069 0.007222 -0.009992 -0.001027 0.003489 0.001003 0.006608 -0.001833 0.012281 -0.016530 -0.077562 -0.010365 0.013663 0.014777 0.009070 -0.011640 0.020956 -0.049854 0.012206 0.015578 0.000252 -0.000097 0.006008 0.001353 0.010002 0.008933 -0.016329 0.009201 -0.010848 0.004605 -0.000838 -0.006538 -0.002157 0.003173 -0.024626 -0.012380 0.000454 -0.022737 -0.072334 -0.019846 -0.022419 -0.016330 0.020298 0.017659 0.009246 -0.021990 -0.011023 -0.005147 -0.002380 -0.020054 0.013257 -0.002040 -0.023028 0.005244 -0.001204 -0.006999 0.008354 -0.004630 0.001255 0.004059 -0.003064 -0.013829 0.006145 0.005766 -0.013312 0.013650 -0.047342 -0.037055 -0.007003 -0.012266 -0.000221 -0.011373 0.016621 -0.008058 0.006224 0.009116 -0.024920 0.026692 -0.021350 0.000187 0.015246 -0.008464 0.005547 -0.003879 0.012447 -0.002451 -0.004941 -0.003280 -0.000283 0.001906 -0.024261 -0.001105 -0.022906 0.015028 -0.048980 -0.058354 -0.012830 -0.008905 -0.008970 -0.008563 -0.015472 -0.015847 -0.055440 0.019891 0.035514 -0.019410 0.019514 0.006839 -0.012217 0.014394 -0.016258 -0.005568 -0.003046 0.017939 -0.008829 -0.004695 0.002401 -0.005761 0.009277 -0.006132 0.000332 -0.004522 -0.035962 -0.033150 -0.024724 0.004257 0.006476 0.015392 0.000663 -0.023728 -0.003410 -0.018782 -0.020202 -0.001429 -0.032532 -0.000368 -0.017694 -0.012079 -0.014355 -0.019494 -0.032221 -0.008787 0.004634 -0.013524 -0.002812 0.005011 -0.002444 -0.010863 0.014649 -0.007471 0.002725 -0.056031 -0.032287 -0.010950 -0.009046 0.015295 0.000207 -0.003618 -0.006213 -0.048533 -0.048483 -0.038882 -0.011318 -0.024680 -0.014213 -0.008474 -0.001293 -0.015739 -0.024257 -0.010284 -0.004957 0.002340 -0.010484 0.004184 0.012415 0.032479 -0.023138 0.023696 0.052525 0.007780 -0.017517 -0.018236 -0.008433 -0.001202 -0.015928 -0.040975 -0.025753 -0.007347 -0.001163 -0.004182 -0.014167 0.001138 0.009330 -0.017813 -0.014753 -0.008908 0.007668 -0.006223 -0.001797 -0.002619 0.000097 -0.004378 -0.008117 0.002072 0.016041 0.022932 0.014017 -0.011496 0.004010 -0.005948 0.008794 0.001916 0.007630 -0.029207 -0.008719 -0.010629 0.002064 0.032093 0.000232 0.005470 -0.011797 0.019812 -0.003460 0.004175 -0.015786 0.005591 -0.002332 -0.015653 0.014491 -0.001575 0.012520 -0.003575 0.006220 0.006358 0.010633 -0.005311 0.009582 0.004718 -0.014548 0.019230 -0.013386 0.029523 -0.005229 0.034677 -0.002213 0.004009 0.013417 0.007906 0.004684 -0.001043 -0.002644 0.008065 0.002288 -0.004047 -0.000098 -0.000560 -0.013043 -0.001484 -0.017505 0.002660 0.001713 -0.034304 0.029712 0.033595 0.024449 -0.002034 0.000191 0.014066 -0.028718 0.011059 0.005879 -0.005673 0.014869 0.008172 -0.003494 0.015476 0.011651 0.013245 -0.006563 0.002742 0.003060 -0.001221 -0.001796 0.000474 -0.008330 -0.001027 0.010191 -0.011723 0.013630 0.002271 0.001913 0.028741 0.036037 0.019933 -0.010731 0.003167 -0.007832 0.021700 -0.017239 0.003600 0.012958 0.003458 0.007760 0.017463 0.006907 0.010529 0.015412 -0.002181 0.006986 -0.000784 0.003593 -0.001524 0.013203 -0.006585 0.007403 -0.014640 0.002881 0.004060 0.008572 0.000636 0.038605 0.014509 0.002195 -0.006852 -0.021958 0.012801 0.003543 0.009286 -0.032249 0.012850 -0.001918 0.009745 0.027373 0.009406 0.030350 0.011140 0.008128 -0.000465 -0.002507 -0.003518 0.002926 0.006006 -0.001144 -0.002352 0.006737 0.003505 0.010611 0.025053 0.016485 0.000365 0.004133 0.010778 0.015549 -0.036250 -0.025908 0.001772 0.016914 0.005518 0.006462 0.012399 0.011510 0.016373 0.016367 -0.008537 -0.000178 -0.007584 0.010885 0.000882 -0.004452 -0.006235 0.008502 -0.011087 0.016916 0.003117 -0.000263 0.002087 0.009096 0.006783 0.018589 0.012903 -0.004751 0.016794 0.027158 0.005817 -0.001152 0.002116 0.009188 -0.000116 0.000588 0.021229 0.018892 0.004887 0.006001 0.005635 -0.002029 0.004154 0.008684 0.003605 -0.003156 0.012427 -0.009989 0.016166 0.020924 -0.002819 -0.001470 0.016815 -0.003419 0.000709 0.002107 0.008090 -0.028207 0.029016 -0.010043 0.005355 -0.012981 0.009268 0.021167 -0.001497 0.006486 0.024778 -0.013548 0.009151 0.014599 0.004556 -0.001502 0.013859 0.004708 0.013183 0.005565 0.004567 0.004504 0.033644 -0.002464 0.017373 0.008586 0.004376 -0.020059 -0.005209 0.018137 0.004775 -0.012155 0.005857 0.005805 0.000563 0.012069 0.000995 0.001373 -0.001650 0.009351 -0.001981 -0.008806 0.007190 0.019056 -0.006919 0.007290 0.005278 0.007782 -0.008718 -0.017286 0.013855 -0.011648 -0.001102 -0.007054 -0.000362 0.007341 -0.004308 0.001007 -0.010307 0.020743 -0.001379 0.010161 0.000673 0.000073 0.003094 0.002431 -0.011657 0.002343 -0.004224 -0.003229 -0.021499 0.005672 0.016982 0.010599 -0.014454 0.012173 0.012156 0.027768 0.010398 -0.017244 -0.012667 -0.002776 0.012248 -0.008150 -0.051256 -0.022488 -0.007454 -0.018323 -0.019081 0.001065 -0.010182 -0.008663 -0.008642 0.001433 -0.017623 0.007370 -0.000808 0.006831 -0.008907 -0.016934 -0.014905 0.027993 0.006557 0.013489 -0.011150 0.021812 0.020745 0.001030 0.000068 -0.012723 0.002299 0.006171 -0.005039 -0.011713 -0.016009 -0.043994 -0.049137 -0.099740 -0.078371 -0.074498 -0.093463 -0.058258 -0.044538 -0.075295 -0.078013 -0.057760 -0.036808 -0.036092 -0.033765 -0.041726 -0.007046 -0.019731 -0.021508 0.002310 0.011575 0.005747 -0.011818 0.008052 -0.017976 0.011071 0.006751 -0.018342 0.009051 0.025157 -0.025550 -0.021961 -0.002920 -0.003031 -0.012342 -0.005531 -0.029461 -0.015813 -0.016838 -0.018775 -0.028194 0.000967 0.010460 -0.001402 -0.000684 0.002836 -0.004153 -0.003945 -0.005066 -0.001808 0.000974 -0.000689 0.014544 -0.002315 0.002794 0.001215 -0.005054 -0.014361 -0.005359 0.009870 0.001165 0.016465 0.003920 0.016278 -0.000977 0.007446 0.014159 -0.001631 0.009949 -0.008932 0.012251 0.007416 -0.015536 0.005836 0.001377 -0.013754 -0.013190 -0.014657 -0.008214
-0.015842 0.019674 -0.019557 0.014859 -0.008533 -0.004043 0.012363 0.000252 -0.006683 0.003551 0.017915 -0.006692 -0.016972 0.016899 0.015216 0.017341 0.004394 -0.003623 0.011589 -0.004230 -0.013572 0.017888 0.009214 0.001442 -0.012479 -0.011121 0.011431 0.018049 -0.013015 -0.007182 -0.008586 -0.002681 0.005883 -0.017108 -0.016972 0.003247 -0.001743 -0.015752 0.018552 0.014528 0.012064 0.009852 0.000811 0.011340 -0.007719 0.006223 -0.006949 0.014971 0.010206 0.005369 0.011039 -0.003348 -0.004131 -0.013905 -0.009074 0.008327 -0.011763 -0.004933 -0.010944 -0.004555 0.012456 0.007268 -0.014965 0.018754 -0.021387 -0.002584 0.006556 0.031878 0.001075 -0.008448 0.001009 -0.017742 -0.001743 0.009168 -0.011273 -0.014977 -0.023671 -0.009558 -0.017790 -0.019815 0.019454 -0.008369 -0.007284 0.018660 0.001551 0.013781 -0.015788 0.003980 0.001383 0.015363 0.012899 0.015911 0.005803 -0.003180 0.005381 -0.015786 0.009523 0.019444 -0.002920 -0.005837 -0.003142 -0.018708 -0.013045 0.000055 -0.017084 0.016154 -0.015589 -0.011933 0.003696 0.008847 -0.007744 -0.006618 -0.017551 0.003312 0.018702 -0.011350 -0.002822 0.011474 0.002399 -0.005701 0.026902 0.000118 0.016396 0.005944 0.014299 0.002667 0.016157 0.016821 0.009642 0.008749 0.010022 -0.016903 -0.009975 -0.006456 0.002596 -0.013110 0.014923 0.016266 0.023141 0.004422 -0.019862 0.008984 0.011117 0.002276 -0.003539 0.004655 0.002355 0.023481 0.008224 0.013547 0.009867 0.013265 -0.000894 0.020421 0.003620 -0.007696 0.002060 -0.005380 -0.005182 0.006904 0.012891 -0.014551 0.015623 -0.001317 0.014136 0.010803 0.017576 0.015747 -0.016795 -0.011928 -0.011716 0.018792 -0.043083 0.000261 0.007879 0.002260 -0.009408 0.005433 -0.006821 0.021520 0.002243 0.016719 0.016055 0.021334 0.016872 0.008062 0.037832 0.001593 -0.009797 0.010933 -0.005279 -0.012967 -0.002632 0.028203 0.004210 0.014673 0.012278 0.012358 0.008112 0.027967 0.010532 0.010895 -0.008690 -0.009178 0.024177 0.002890 0.011392 0.009633 0.013294 0.009290 0.010934 0.006625 0.017546 0.011006 -0.004567 -0.008716 0.028074 0.007708 0.002933 0.000810 0.008144 0.015573 -0.009416 0.010021 0.010237 0.020920 -0.016753 -0.003086 0.026499 -0.028393 0.005946 -0.009606 0.003355 -0.009708 -0.007062 -0.001383 0.006640 0.007451 0.021173 0.012102 0.016482 0.000306 0.012903 0.021587 -0.014474 0.003303 -0.002993 0.004314 -0.006843 -0.001503 -0.000718 0.001004 -0.005434 -0.006022 -0.014368 -0.006013 0.042587 0.003682 0.021480 -0.006896 -0.001991 0.014393 -0.003349 -0.001876 0.007021 0.014976 0.007883 0.030389 0.004681 0.019969 -0.002051 -0.001548 -0.000419 0.002563 -0.008063 0.028406 0.011025 0.002618 0.002597 0.008292 -0.017020 0.012826 -0.014116 0.013753 -0.002722 -0.001770 0.012069 -0.011001 -0.008948 0.004096 0.005125 0.010451 -0.016902 0.010813 -0.007145 -0.012404 -0.002214 -0.010181 0.004691 -0.000174 0.012403 -0.000656 -0.020121 0.008540 -0.021964 0.021798 0.014675 -0.012734 -0.002689 -0.013997 0.021700 -0.015935 -0.004467 -0.014712 -0.016249 0.035966 -0.001135 -0.005885 -0.013108 -0.002433 -0.017124 0.006229 0.022322 0.010389 -0.002177 0.007273 0.020840 -0.009775 0.007109 0.015872 0.026171 0.002594 0.021730 0.038131 0.018949 -0.016164 -0.001974 0.013963 0.026635 -0.010336 0.013396 0.021783 -0.006740 -0.016279 -0.005036 0.002284 -0.000355 -0.005534 0.003683 -0.020036 0.007962 0.009710 -0.011689 -0.004072 -0.005895 0.008088 0.001076 -0.024149 0.011500 0.003169 0.010391 -0.015164 0.030489 -0.006782 0.007113 0.013950 -0.000451 -0.004968 0.008864 0.010772 0.019621 0.009116 -0.003182 -0.013329 -0.014353 -0.017910 -0.016037 0.015847 0.000269 -0.006039 0.012135 -0.005000 0.002174 0.001675 0.004686 0.005538 -0.000971 -0.026843 -0.004955 0.020161 0.023079 0.001129 -0.011838 -0.018704 0.020138 0.003597 0.001983 -0.023970 -0.023295 -0.023263 -0.007291 -0.001986 -0.002809 -0.013462 -0.009717 -0.001903 0.019389 -0.003450 -0.008526 -0.008414 -0.000971 -0.012514 -0.015006 0.001892 -0.020748 0.001229 0.017646 -0.000745 -0.001127 -0.015695 0.018404 0.004854 -0.019085 -0.032094 -0.030142 0.012489 -0.000872 -0.001707 0.000725 -0.016940 -0.000622 -0.008688 -0.002902 -0.004217 -0.008757 0.001655 -0.004539 0.005198 0.007276 0.000520 0.011105 -0.000352 0.000070 0.005031 -0.040548 -0.005240 0.006000 0.017560 0.010924 0.019142 0.011924 0.001498 0.047913 -0.005239 0.002200 -0.004677 0.001083 -0.007260 0.002378 -0.003369 -0.007384 0.000673 -0.004744 -0.014697 -0.007338 -0.013529 -0.010894 0.001681 -0.014446 -0.015956 0.003889 -0.017194 0.011499 0.008686 0.001994 0.005222 0.004258 -0.016448 0.008543 0.031104 0.003064 -0.006930 -0.005711 -0.010873 -0.001961 -0.001150 0.004645 -0.023526 0.015524 -0.003526 -0.011048 0.001939 -0.005429 -0.000425 -0.003693 0.004980 -0.013952 0.018513 -0.025134 0.003577 -0.028406 0.021714 0.001678 -0.012444 0.006278 0.013968 0.008239 -0.003551 -0.011325 0.015070 0.001672 -0.013094 0.011632 -0.013842 -0.003176 0.014713 -0.019096 -0.010075 -0.010956 -0.002204 0.000346 0.009735 -0.004542 -0.007857 0.011117 -0.003541 0.003139 -0.003813 -0.003782 -0.000380 0.016781 -0.006054 0.012805 -0.020078 0.004871 0.012127 -0.003842 0.026924 0.000049 0.034309 -0.023133 0.009634 -0.012661 -0.021806 0.009515 -0.008991 0.003281 -0.005572 -0.006526 -0.011822 0.001496 0.011536 -0.002903 0.006136 0.038597 -0.015168 0.012188 0.026013 0.019092 -0.018892 -0.009094 -0.018591 0.005084 0.020234 0.007909 0.014874 0.015384 -0.009704 0.011266 0.008964 -0.001854 0.010181 -0.005592 0.008093 -0.009899 0.004731 -0.003944 0.003717 -0.010385 0.006148 -0.011602 -0.012968 0.030473 0.008434 0.026290 -0.008862 0.013938 0.003722 -0.019410 0.019631 0.002658 0.024547 0.012468 -0.007647 0.034219 0.008037 0.016715 -0.001406 -0.013263 0.000411 -0.019628 -0.006860 0.004696 -0.016221 0.013498 -0.005657 0.000058 0.007368 0.012317 0.012614 -0.012064 0.002428 0.012136 -0.009437 -0.014136 0.012630 -0.013826 0.004551 0.027868 0.017243 -0.023213 -0.002834 0.006662 -0.001387 0.017031 -0.011377 0.017338 0.004397 0.006497 -0.004603 0.005392 0.005459 -0.016166 0.002734 -0.001078 -0.006578 0.008821 -0.004016 -0.010283 -0.005654 0.004500 0.008482 -0.013547 -0.004911 -0.007645 -0.018146 -0.004380 0.031636 0.018457 0.031431 0.006824 -0.017926 0.012380 0.011582 0.010044 -0.001326 0.025392 -0.001682 0.014196 0.002719 0.021282 -0.002273 0.004665 -0.002152 -0.023023 -0.003788 0.005157 -0.000403 0.000070 -0.010749 0.019456 -0.008587 0.004230 -0.003099 0.003853 0.009772 0.030744 0.005691 -0.010640 0.002381 0.006249 -0.017195 0.017363 -0.008471 0.009108 -0.007249 0.004783 0.003321 -0.005981 -0.002931 0.016511 -0.004916 0.011129 -0.007572 0.016814 0.038798 -0.010160 0.000517 -0.013315 0.015504 -0.017289 -0.002986 0.016289 0.012812 0.002765 0.026396 0.030714 0.019596 0.029108 -0.003210 0.013337 0.013381 0.011482 0.020102 0.011115 0.000169 0.029148 0.016284 0.030908 -0.002635 0.027373 0.051258 0.008098 -0.008557 0.020896 -0.010806 -0.012905 0.011525 0.000839 0.009244 -0.006493 -0.006220 0.019311 -0.006537 0.005689 0.006335 0.015489 0.032093 0.020610 0.055789 0.020753 0.035906 0.030058 0.043439 0.037313 0.043445 0.051044 0.038401 0.053576 0.022269 0.017929 0.001744 -0.015810 0.004187 -0.016959 -0.009241 0.001702 0.002029 -0.013176 0.004056 -0.018652 -0.004924 0.009887 -0.014897 0.008549 0.014982 0.004643 0.011443 -0.005287 0.031067 0.004933 -0.000615 0.021128 -0.012686 0.023277 -0.013951 -0.004413 0.009909 -0.003228 -0.011696 -0.007364 0.000102 -0.018793 -0.014814
0.014378 -0.017166 0.014381 -0.011814 0.001268 0.001662 0.014294 0.002235 -0.006272 -0.010804 -0.000242 0.013506 0.003637 0.015012 0.000234 0.017832 0.004446 0.000724 0.006461 0.007620 0.006615 0.010665 -0.014277 0.010767 0.013892 0.014870 -0.015305 0.000724 -0.018475 0.013901 0.011045 0.008012 -0.007958 0.006274 -0.011267 -0.015069 -0.011979 0.010217 0.019429 0.001863 0.006136 0.014459 0.008113 -0.005186 0.009392 -0.007637 0.018438 -0.009998 -0.004526 0.017141 -0.016905 -0.011327 0.008685 0.012942 0.003113 -0.005184 -0.003798 0.019614 -0.011605 -0.009412 0.011101 0.001701 -0.013898 -0.013704 -0.000485 -0.002627 0.003054 0.010003 0.022828 0.024251 0.033381 0.014894 -0.006300 -0.020019 -0.012208 0.004031 -0.015131 0.007202 0.002225 0.011366 0.005661 0.022062 -0.013855 -0.008149 -0.003205 0.003880 0.006079 0.019821 -0.004275 -0.005052 0.010557 -0.000112 -0.003197 -0.001720 -0.018645 -0.002155 -0.010195 -0.032520 0.013030 -0.002297 -0.005432 0.017424 -0.006870 0.020373 0.007724 0.007625 0.032554 0.014958 0.035553 0.020143 0.015880 0.005681 0.003661 -0.000589 -0.001306 0.001269 0.003790 -0.016593 0.001644 0.013122 -0.020084 -0.003708 0.016837 -0.018650 0.011215 -0.013976 0.011647 -0.014862 0.023850 0.007435 0.008149 -0.010968 0.003825 0.018598 0.018761 -0.011938 0.037410 0.010548 0.013207 0.008693 -0.011870 -0.004799 -0.001588 0.011185 -0.019322 0.001353 -0.006681 -0.019021 0.016821 -0.001966 -0.018081 -0.005834 0.000521 -0.008630 -0.005721 0.006122 -0.020301 -0.005169 -0.001873 -0.005822 0.006239 -0.006083 -0.008362 -0.014045 0.023834 0.011294 -0.012267 0.013207 -0.000743 -0.003975 0.014573 -0.000329 0.001224 -0.005137 -0.021673 -0.006826 -0.011702 -0.003793 -0.001696 -0.015124 -0.000217 -0.004292 -0.007285 0.008264 -0.003660 0.017727 -0.003728 0.020656 -0.011976 0.021324 0.017591 -0.004479 0.015839 0.014960 0.006919 -0.004699 0.008527 0.003442 -0.002489 -0.011136 -0.024227 -0.004973 -0.015675 0.004188 -0.009195 0.012258 0.006853 0.002169 -0.007846 0.006013 -0.000045 -0.004487 0.000304 -0.002934 0.007610 0.012151 0.010614 0.019077 0.003054 0.002986 0.000423 -0.012783 -0.007467 -0.007195 0.003652 -0.015491 -0.010700 0.001916 -0.040007 -0.003082 0.005527 -0.015154 0.007016 -0.019036 0.004909 -0.004494 -0.008901 0.009571 -0.008672 -0.003022 0.023797 0.007447 0.010786 -0.000396 0.022168 0.002514 0.014217 0.021725 0.003490 -0.013125 0.008794 0.004290 0.003301 0.019497 -0.016661 -0.020668 0.007600 -0.026723 -0.000325 0.004564 -0.021433 0.010479 -0.000552 0.006680 -0.000719 0.004577 -0.006523 -0.010901 -0.009491 -0.001781 0.009449 0.006648 0.000151 0.006305 0.007856 0.005556 0.013975 -0.032169 -0.013334 0.020875 -0.009407 -0.014070 -0.010779 -0.033206 0.011917 -0.012532 -0.029332 0.025553 0.011823 0.007939 0.009378 0.002739 -0.003610 0.010422 -0.009492 -0.022130 -0.046016 -0.044982 -0.010156 0.005763 0.034268 0.009074 -0.000546 0.007414 -0.011800 -0.005473 -0.008648 0.002349 -0.013715 -0.015145 -0.012989 -0.008223 0.006455 0.004319 0.016036 -0.011439 0.006805 0.003310 0.002892 0.005242 -0.008605 -0.014781 0.001498 -0.008595 -0.014875 -0.056195 -0.142597 -0.127092 -0.101546 -0.057022 -0.057774 -0.011315 0.001962 0.020538 0.009724 0.015617 -0.004546 -0.019628 0.016234 0.020075 -0.011393 0.002270 -0.010376 0.006511 -0.004139 -0.009646 0.017400 0.006504 0.007513 0.007649 -0.003258 -0.000137 -0.004561 0.006086 0.032667 -0.031013 -0.078182 -0.067152 -0.049394 -0.055512 -0.061057 0.012704 -0.000440 0.014392 0.006145 0.003956 -0.010525 0.032588 -0.001830 -0.001322 -0.001342 0.001755 -0.008505 0.011547 -0.014151 0.006979 0.000139 0.006798 -0.020466 -0.003251 0.000430 0.020114 -0.017192 0.010650 0.004681 -0.018076 -0.057630 -0.072952 -0.064702 -0.022745 -0.010391 -0.014487 0.017605 0.012440 -0.015688 -0.001883 -0.012279 -0.012216 0.026505 -0.004400 0.005841 -0.007699 0.011283 0.011393 0.007676 0.000536 -0.001703 -0.000836 -0.005131 0.002743 -0.002711 0.017039 -0.000833 -0.025400 -0.006850 -0.013586 -0.022407 0.011260 0.016467 -0.014597 0.019683 -0.017366 -0.011871 0.002004 0.011942 -0.005019 -0.001660 0.001816 0.000495 0.004325 -0.002131 0.007530 0.005977 -0.010715 -0.007597 -0.002603 0.000367 0.009278 0.012250 -0.002320 -0.000198 0.019065 -0.006335 0.014147 -0.010437 -0.014870 -0.002051 -0.014583 0.003540 -0.010711 -0.020014 -0.018414 0.011909 -0.006243 0.015478 -0.002680 0.009130 -0.000162 0.012829 -0.012122 0.010224 -0.001297 -0.007137 0.018862 -0.007321 0.015199 -0.000562 -0.015039 0.002399 -0.007016 0.010363 -0.017485 -0.011775 -0.010025 -0.008677 0.003456 0.015831 0.018786 0.008107 -0.019967 0.024073 0.002047 0.009503 -0.010476 -0.001259 -0.006829 0.013185 0.015788 -0.000465 -0.008531 0.006756 0.003298 0.004054 0.005588 -0.007201 0.020235 0.001474 -0.005466 -0.006184 -0.018018 0.033875 -0.003524 0.008948 -0.001309 0.001401 0.007013 0.012604 -0.015467 0.016930 0.010941 -0.005055 0.010666 0.006692 0.007257 -0.000031 -0.016399 0.015579 0.000735 -0.003028 -0.008293 0.005143 0.005917 -0.012688 -0.011897 0.014979 -0.008350 -0.000644 -0.014686 -0.002395 -0.006456 -0.000886 0.003518 -0.004290 -0.009532 0.007415 -0.006846 0.009982 0.011103 -0.001655 -0.005699 -0.008009 -0.003601 0.004646 -0.013400 0.004425 0.003121 0.015660 0.019861 -0.010952 -0.007259 0.018784 -0.012445 -0.017843 0.008115 0.027756 0.007466 -0.005799 -0.016247 -0.021595 -0.008754 -0.017037 0.000380 -0.012076 -0.024497 -0.008161 -0.016410 -0.004151 0.000908 0.005010 -0.009978 0.001214 0.027422 -0.012233 0.007539 -0.028192 0.003401 0.007792 0.002596 0.000622 0.015885 -0.019534 -0.010042 -0.018988 0.019163 0.009132 0.017557 -0.017951 0.003889 -0.015630 0.012486 0.018232 -0.010683 -0.000409 0.017913 0.011564 -0.003634 0.009082 0.006805 -0.015307 0.013457 -0.007180 0.008085 0.009405 -0.012360 -0.000137 0.000528 0.001299 0.022862 0.030138 0.019102 -0.001213 0.004633 -0.001556 -0.003688 -0.010637 0.018496 0.018699 -0.010875 0.006223 -0.035328 -0.005339 -0.021457 -0.007835 -0.008912 -0.011854 0.012538 0.001187 0.003443 0.007694 0.011700 -0.004152 0.009065 0.004062 -0.002878 -0.006043 -0.007535 0.014045 0.005953 0.008716 0.032679 -0.004593 0.007436 0.014441 0.004112 -0.019333 -0.005198 0.007636 -0.007930 0.019539 0.012078 0.004461 -0.000326 0.020381 -0.008460 0.003061 -0.008727 0.006607 -0.008051 0.017537 -0.002943 0.007293 -0.000757 -0.002497 -0.007985 0.011511 -0.011762 0.023561 0.008235 0.008948 0.014667 -0.021143 0.012706 -0.014713 -0.005957 0.014643 0.023765 0.006490 -0.016979 -0.014058 0.000054 -0.003305 0.004413 -0.004844 -0.007918 0.016152 0.002268 0.003159 0.017160 -0.014803 -0.007050 0.026958 -0.008319 0.009414 -0.001342 -0.012584 0.014063 0.006096 -0.009654 -0.002437 -0.016185 0.013964 0.014677 0.006231 0.026079 0.017584 -0.003992 0.005890 -0.006943 0.000551 -0.006227 -0.006286 0.001785 0.008026 0.009504 -0.020521 0.008653 0.012097 0.032710 0.005672 -0.000756 0.008702 0.046051 0.017041 0.006699 -0.010721 -0.016524 -0.000328 -0.016044 -0.018260 0.014129 0.018002 0.012870 -0.000772 -0.014685 0.019134 -0.003086 -0.019462 -0.010737 -0.009914 0.015337 0.006880 0.009047 0.019313 -0.004189 0.014076 -0.001847 -0.022765 -0.001450 0.010688 0.015563 0.020838 -0.016971 -0.004181 -0.004506 -0.002996 0.008052 0.007156 -0.010571 0.012943 -0.017069 0.017429 -0.008212 -0.001419 0.018897 -0.014572 -0.005155 -0.002884 0.015046 -0.002282 0.005172 0.004036 0.003853 0.011150 -0.002296 -0.018440 0.001107 -0.016881 -0.002505 0.021703 0.016533 0.013755 0.011866 -0.002014 0.006000
-0.006398 0.004284 -0.015570 -0.002730 -0.015617 0.002920 0.016108 -0.003328 -0.002534 -0.011059 -0.012658 0.009816 0.006422 -0.004498 0.010032 0.011116 0.007558 -0.002347 -0.005270 -0.002518 0.015705 -0.015589 0.017465 0.003639 -0.005663 0.008337 0.014404 -0.013600 0.012255 -0.019168 0.012029 0.005919 -0.001425 -0.009867 0.010657 0.019544 0.021830 0.020460 -0.002623 -0.000565 0.015883 0.016266 0.008319 -0.003607 -0.012650 0.021748 0.022725 0.010282 0.009944 0.018459 0.002543 0.019633 -0.005819 -0.007608 0.013487 0.003639 0.014117 0.002946 0.004373 -0.007008 0.022392 0.012830 -0.002651 0.004815 -0.002485 0.027055 0.019048 0.000072 0.034070 -0.003950 0.012447 0.003153 0.025311 0.007824 0.023654 0.001191 -0.006500 0.003867 0.014118 0.012281 -0.004706 0.007344 -0.010866 -0.017993 0.017103 -0.014157 -0.016717 -0.008300 0.009187 0.007769 0.004484 0.030461 0.033708 0.006493 0.016980 -0.001848 -0.004535 0.021069 -0.001942 0.019305 -0.005339 0.011720 0.009017 0.001579 0.014760 0.010392 0.012593 -0.022182 -0.010937 -0.006318 0.001450 0.003394 -0.014617 -0.002632 0.008567 -0.008630 -0.018288 -0.011835 -0.013187 -0.004950 -0.008611 -0.033742 0.012905 -0.008436 -0.002435 -0.012415 -0.010746 0.004976 -0.012819 0.011002 -0.003968 0.015083 -0.016823 -0.022683 -0.027794 0.003105 -0.026597 -0.007272 0.005099 -0.018585 0.003499 -0.001193 0.010667 -0.001472 -0.018274 -0.018119 -0.016299 0.002317 -0.009341 -0.015918 -0.001156 0.001455 -0.011355 -0.003201 0.009398 -0.005424 -0.009139 0.013305 0.001016 -0.002400 0.029224 0.013379 0.000877 0.015786 -0.013352 -0.023793 -0.007055 -0.016011 0.005806 0.003620 0.001286 -0.001467 -0.022712 -0.011537 0.014088 0.001146 -0.001009 0.004356 -0.017564 0.001220 0.009236 -0.003458 -0.009967 0.002497 0.008538 0.004822 0.019341 0.003587 0.005708 -0.025998 -0.012722 0.020642 -0.039154 -0.009691 0.006605 -0.010795 0.002000 0.003771 -0.006047 0.000936 -0.042480 -0.018524 0.004325 0.015307 0.008836 -0.007913 0.007207 -0.031973 -0.001981 -0.013768 0.004255 -0.001280 0.002905 -0.009887 0.001335 0.010961 -0.031660 -0.026456 -0.028013 -0.008859 0.004605 -0.000589 0.008827 -0.015989 0.012258 0.003883 -0.012410 -0.006953 -0.058604 -0.004323 -0.009261 -0.018083 0.002562 0.017732 0.002655 0.016543 -0.018169 -0.010460 -0.026129 -0.019588 -0.009703 -0.024289 -0.039128 -0.107742 -0.058560 -0.059367 -0.061425 -0.070437 -0.055032 0.006743 -0.007211 -0.017352 -0.004355 -0.009908 -0.019725 -0.006339 -0.011858 0.004644 0.001068 -0.000471 0.008589 -0.003567 -0.000087 0.008392 0.005626 -0.024041 -0.003141 -0.058432 -0.046658 -0.069088 -0.030434 0.001169 0.012424 -0.001424 -0.018342 -0.028243 -0.008698 -0.021304 -0.009326 -0.016884 -0.010443 -0.005766 0.011351 -0.023547 -0.005550 -0.013230 -0.008170 0.023556 -0.002384 -0.001611 0.001930 0.005536 0.025679 0.012626 -0.007884 0.009263 0.006106 0.007468 -0.017117 0.003685 -0.010644 -0.000670 0.016042 0.010286 -0.006905 -0.037246 -0.013607 -0.015949 -0.013552 -0.000919 -0.015401 -0.016365 0.015646 0.011814 0.015264 -0.014667 0.012971 0.002370 -0.003873 -0.002521 -0.008328 0.028415 0.025530 -0.000970 -0.004598 0.028499 -0.002270 0.000771 -0.023903 0.021248 -0.007799 0.007239 0.027021 -0.010153 -0.003113 0.011265 -0.008920 -0.019948 0.013748 0.004660 -0.000954 0.024697 0.012460 0.001147 0.005334 -0.002097 0.005739 0.009477 0.015208 -0.004100 -0.006976 -0.004333 -0.001705 -0.002889 0.007761 -0.002654 0.039236 -0.034305 0.012927 0.007502 0.001826 0.000584 -0.009652 -0.010137 0.015600 -0.015787 -0.002319 0.015618 -0.005166 0.015275 -0.029534 0.012239 0.002810 -0.004000 0.003838 -0.004128 0.002573 -0.000391 0.002396 0.005410 -0.008916 -0.003424 -0.006961 0.006130 -0.004909 0.011801 0.015983 0.020017 0.000302 -0.022949 0.016419 0.012292 0.008444 -0.018375 0.010125 -0.000417 0.005582 -0.004145 0.009321 0.003781 0.006798 0.002249 0.008671 0.002879 0.002835 -0.008340 0.001558 0.001812 0.011775 -0.007017 0.007933 -0.016492 0.010319 0.010364 0.014472 -0.010744 0.020619 0.013762 0.001969 0.015078 -0.002646 -0.019308 0.019728 0.001833 -0.009359 -0.018610 0.010024 -0.027613 -0.012450 0.009167 -0.010489 0.004858 -0.003812 -0.006420 0.009749 0.001516 -0.002256 -0.008413 0.000848 0.004482 0.009841 0.007459 -0.009765 -0.002917 0.007344 -0.012083 -0.002015 0.003243 0.018977 0.007960 0.020938 -0.002116 0.003733 -0.001174 -0.022293 0.023854 0.003770 -0.002067 0.002811 0.012336 -0.009640 -0.012904 0.009540 -0.008226 -0.001076 -0.007033 -0.007411 0.013361 0.000218 -0.005530 0.009125 0.023138 0.008507 -0.006049 -0.038840 -0.007150 -0.014707 0.010790 0.009127 -0.012923 -0.015903 0.002001 0.017631 -0.002771 -0.007850 -0.000597 0.002303 0.005073 0.001048 -0.003689 0.002269 -0.001558 -0.009869 0.001013 0.000258 0.000667 0.000014 0.001778 -0.010062 -0.019598 0.007795 -0.018869 -0.018572 -0.011287 0.009579 0.018466 0.026014 0.014632 -0.011546 0.001786 0.002711 0.001756 0.012010 0.004015 0.010661 0.009178 0.003037 0.008639 0.000578 0.007467 -0.011137 0.015266 0.005616 -0.014379 0.006690 0.002092 -0.006585 0.015259 -0.016954 -0.016017 -0.001860 -0.019106 0.007475 0.002554 0.007555 -0.009695 0.010252 -0.006245 -0.008580 0.006265 -0.002221 -0.002506 0.001007 0.018769 0.013446 -0.004139 -0.002037 -0.006759 0.013293 -0.003191 -0.004774 0.014832 -0.006574 -0.014592 0.001971 -0.011618 -0.011739 -0.023802 -0.008843 0.013525 -0.016102 0.001470 -0.016190 0.007487 0.005682 0.004102 0.018492 -0.018987 0.001124 0.001743 0.004186 -0.007205 0.020705 0.011853 0.003901 0.006068 -0.002101 0.002389 -0.006433 -0.003790 0.003683 -0.006775 0.017953 -0.005838 -0.002612 -0.022801 -0.012062 0.007123 0.011899 0.015698 0.009524 -0.018486 -0.003279 0.010543 -0.011481 -0.005703 0.007827 -0.003035 0.025088 -0.016851 0.009174 0.003192 0.015527 0.003234 0.001650 0.001012 0.011783 -0.011773 0.001955 0.006548 0.000408 -0.010564 -0.022419 -0.006520 -0.009508 -0.016837 -0.017835 0.014301 0.004858 0.015725 -0.012934 0.005145 -0.011225 0.032808 -0.002654 -0.017571 0.005310 0.012636 0.001066 -0.002441 0.004461 0.002115 0.013987 -0.010678 -0.000832 0.020133 -0.009630 0.014800 0.012759 -0.021852 -0.054274 -0.005514 0.006143 -0.012654 0.019258 -0.003227 0.003438 -0.012479 -0.004498 0.029505 0.000957 -0.009537 0.008664 -0.011937 0.034682 -0.002960 0.007889 0.004846 0.006044 0.000146 0.008100 0.005966 -0.004341 -0.025096 0.024931 -0.029852 -0.017165 -0.021574 -0.003649 0.000303 0.007976 -0.007958 0.003862 0.015166 -0.000223 -0.012976 -0.008376 0.022841 0.017204 0.006964 -0.023452 0.009740 0.010870 -0.006848 0.001868 -0.012482 0.019701 0.000984 -0.013104 0.004162 0.019882 0.010096 -0.030060 0.001744 -0.003643 0.009133 -0.003503 -0.005020 0.014828 -0.011421 0.001850 0.018328 0.019279 -0.015852 0.000432 0.009614 -0.000892 -0.025180 -0.015663 -0.033115 -0.011637 -0.009762 0.009230 -0.040574 -0.025119 -0.011199 0.018028 -0.001635 -0.037489 0.002332 -0.007368 0.008880 0.028026 -0.003858 0.005356 -0.010433 0.005601 -0.005250 -0.002683 0.000051 0.007800 -0.009028 0.014479 -0.010451 0.017852 -0.009262 -0.019551 -0.016140 0.021797 -0.011198 -0.001328 0.028535 -0.007557 -0.002594 -0.010036 0.016670 0.001010 -0.006637 0.014691 -0.006896 -0.010766 0.009430 -0.013534 0.012084 0.018472 0.011292 0.003600 0.006848 -0.013515 -0.018506 -0.012084 -0.000313 -0.016085 -0.018524 -0.005385 0.016556 -0.010272 0.012530 0.010655 -0.008039 0.007842 -0.003846 -0.010514 0.021815 0.002050 0.028679 0.000905 -0.009179 -0.007272 0.006123 -0.017015 0.010248 -0.015705 -0.008127

Biases B1:
# Shape: (10,)
0.020442
0.027503
-0.020131
0.009731
0.000924
0.017499
-0.000243
0.006524
0.015722
0.001886

Weights W2:
# Shape: (10, 10)
-0.076899 -0.067910 0.000928 -0.018107 0.016210 -0.005530 -0.003715 -0.001439 -0.017480 -0.007885
-0.021895 -0.000250 -0.000104 0.025500 -0.017124 -0.000668 -0.000633 -0.000749 -0.111255 -0.000681
-0.005938 -0.001904 -0.001422 -0.015964 -0.018604 -0.006349 0.015214 -0.001188 -0.010028 -0.046667
-0.031090 -0.021841 -0.012534 -0.042488 -0.106665 -0.040386 -0.026761 0.002906 -0.028414 -0.018594
0.008326 -0.016932 -0.006285 -0.005852 0.004231 0.007068 -0.007238 -0.125800 -0.017736 -0.026730
-0.018827 -0.008830 0.013517 -0.001867 -0.003836 -0.010353 -0.052121 -0.002787 0.018975 0.016114
0.000408 -0.074691 -0.021866 0.007165 -0.000526 0.000674 0.002429 -0.037871 0.008971 0.012818
0.000844 0.019754 0.003629 -0.010586 0.002094 -0.011728 -0.018908 -0.005147 -0.037620 0.001425
-0.037275 -0.005510 -0.015843 -0.023371 -0.006435 0.022006 -0.014441 -0.002299 -0.016252 -0.005384
0.021870 -0.019719 -0.046271 -0.002804 -0.000824 -0.000478 -0.012797 -0.002848 -0.000205 -0.032907

Biases B2:
# Shape: (10,)
0.158001
0.065474
0.199625
0.788087
0.502659
0.178768
0.268111
0.213838
0.189622
0.188935
